tree
version=v4
num_class=1
num_tree_per_iteration=1
label_index=0
max_feature_idx=19
objective=binary sigmoid:1
feature_names=open high low close tick_volume spread real_volume ret1 ret5 ret20 sma_10 sma_50 ema_20 rsi_14 bb_high_20_2 bb_low_20_2 stoch_k_14_3 stoch_d_14_3 atr_14 vol_pct_20
feature_infos=[112.595:161.93899999999999] [112.63200000000001:161.94800000000001] [112.529:161.91399999999999] [112.595:161.93600000000001] [1:9213] [0:236] none [-0.028283314375710855:0.014413385771274712] [-0.032708933717579214:0.021683039902864465] [-0.035036917080668584:0.025560233788537667] [112.67760000000001:161.91210000000001] [112.8687:161.77817999999999] [112.81176264775007:161.86960376428169] [0.49958368026500466:99.999999999090321] [112.85396021982132:163.36969098344983] [112.40299383211077:161.76638977941016] [0:99.999999999954142] [0:99.381653826556544] [0.010214285714289824:1.0414285714285703] [0.00028391931630250013:0.030832354408221897]
tree_sizes=3401 3495 3505 3531 3483 3496 3479 3512 3507 3484 3491 3474 3483 3495 3507 3495 3480 3497 3489 3516 3516 3493 3490 3510 3526 3463 3468 3479 3477 3477 3468 3521 3475 3503 3483 3494 3496 3500 3496 3492 3481 3466 3499 3470 3503 3494 3471 3469 3486 3483 3479 3495 3467 3451 3529 3513 3494 3476 3494 3504 3481 3427 3440 3462 3492 3454 3487 3445 3440 3521 3463 3455 3481 3476 3446 3480 3524 3396 3436 3459 3453 3444 3435 3434 3486 3457 3457 3476 3434 3501 3407 3433 3421 3448 3420 3382 3424 3444 3435 3425 3432 3426 3442 3425 3428 3424 3425 3428 3454 3479 3390 3483 3448 3412 3432 3455 3474 3429 3449 3414 3441 3424 3428 3470 3413 3465 3396 3420 3441 3437 3416 3407 3489 3440 3437 3421 3429 3438 3452 3451 3407 3476 3439 3434 3444 3405 3425 3468 3500 3404 3438 3395 3464 3427 3408 3442 3422 3421 3494 3421 3411 3425 3469 3410 3436 3404 3406 3440 3431 3452 3429 3477 3424 3444 3432 3430 3461 3436 3432 3422 3427 3419 3426 3463 3450 3419 3472 3496 3431 3425 3398 3444 3456 3429 3438 3477 3443 3414 3445 3421

Tree=0
num_leaves=31
num_cat=0
split_feature=18 18 19 2 18 8 18 14 12 8 7 15 8 9 8 15 13 13 14 10 16 0 7 14 15 7 17 15 10 2
split_gain=2091.83 449.28 426.889 174.096 139.796 93.4188 66.5086 64.0161 75.8268 60.7125 55.6861 50.1624 46.1522 42.4887 38.5386 37.1236 50.719 36.4145 36.2344 35.8554 35.6434 33.3521 32.0287 30.7318 29.9402 27.7779 24.7487 23.9046 23.7826 25.8269
threshold=0.10735714285714289 0.16607142857142829 0.0014581765136658577 144.54250000000005 0.30924999999999975 -0.00088478902755217959 0.050642857142855859 115.92842078722036 147.54453495965356 -0.0020776625692398016 -0.0010698678032614037 147.50002092757282 0.0007945780012935667 -0.0021446685366494074 0.0013029017461397843 132.55575725133858 74.929377965674078 22.170176977783196 115.74817295614221 137.45365000000001 26.542767061558155 129.47350000000003 0.00032320265515040086 154.70887466272544 149.07313212241289 -0.00055071000461692765 92.027408420560107 113.30545205642748 154.31810000000004 135.48850000000002
decision_type=2 2 2 2 2 2 2 2 2 2 2 2 2 2 2 2 2 2 2 2 2 2 2 2 2 2 2 2 2 2
left_child=2 3 6 9 10 18 24 27 12 -2 -3 -8 13 -9 -11 16 20 -5 -4 -16 -12 -22 25 -20 -1 -15 -6 -7 29 -17
right_child=1 4 5 17 26 7 11 8 -10 14 15 -13 -14 22 19 28 -18 -19 23 -21 21 -23 -24 -25 -26 -27 -28 -29 -30 -31
leaf_value=-1.64959406320772 -1.5629894099703656 -1.5553701083596858 -1.638673114472172 -1.5841755778720961 -1.5331351652945573 -1.613053814719976 -1.6329492546552173 -1.5899257966563101 -1.6334324879615849 -1.599921716434719 -1.5410030688385243 -1.6483962880507306 -1.6030995468082445 -1.5999869802914553 -1.5950666393903605 -1.6054180016822253 -1.5007578982354097 -1.6159621945822622 -1.595307994156792 -1.5636709217423406 -1.6128813211962394 -1.5684231948079133 -1.606836899485192 -1.6400945476921238 -1.6650733030979308 -1.6294853134523484 -1.5995989150405296 -1.6494827407415134 -1.6048426360072758 -1.581973101950102
leaf_weight=777.58005250990391 144.37018936872482 197.47186821699142 65.823956072330475 94.310794204473495 197.88672508299351 51.718822628259659 954.72393429279327 98.874219730496407 1190.500919803977 1615.7292074561119 62.643386766314507 1169.2049340158701 437.53570801019669 86.290228128433228 220.84213833510876 130.5416271686554 26.550839424133301 2018.1403674781322 446.10941657423973 154.6033253967762 66.653669804334641 114.91535188257694 230.24556063115597 41.900543466210365 522.16650867462158 1062.3101482093334 15.073132798075674 348.34148181974888 158.33703719079494 1172.8003601878881
leaf_count=5623 1044 1428 476 682 1431 374 6904 715 8609 11684 453 8455 3164 624 1597 944 192 14594 3226 1118 482 831 1665 303 3776 7682 109 2519 1145 8481
internal_value=-1.61596 -1.59495 -1.6339 -1.60437 -1.57628 -1.62293 -1.6469 -1.62595 -1.62352 -1.5943 -1.58053 -1.64145 -1.61736 -1.62159 -1.59657 -1.58339 -1.56639 -1.61454 -1.60385 -1.58214 -1.57352 -1.58474 -1.62386 -1.59915 -1.65581 -1.62727 -1.53784 -1.64477 -1.58654 -1.58432
internal_weight=13874.2 6390.87 7483.33 4248 2142.87 4059.65 3423.68 3505.82 3105.76 2135.54 1929.91 2123.93 1915.26 1477.72 1991.17 1732.44 270.763 2112.45 553.834 375.445 244.212 181.569 1378.85 488.01 1299.75 1148.6 212.96 400.06 1461.68 1303.34
internal_count=100330 46215 54115 30719 15496 29357 24758 25352 22459 15443 13956 15359 13850 10686 14399 12528 1958 15276 4005 2715 1766 1313 9971 3529 9399 8306 1540 2893 10570 9425
is_linear=0
shrinkage=1


Tree=1
num_leaves=31
num_cat=0
split_feature=4 19 19 5 4 19 4 19 5 10 4 9 11 9 18 19 7 12 11 4 11 19 10 12 11 11 11 11 7 8
split_gain=2024.85 552.025 439.114 156.773 148.57 147.293 131.161 63.0463 62.8585 55.5201 50.2983 50.1009 52.1983 45.0886 39.616 39.2109 36.5696 32.4474 31.8935 30.5709 30.7171 29.2944 28.843 39.7551 27.2938 26.9493 30.2086 29.2991 26.6079 26.56
threshold=1240.5000000000002 0.0015720012104177019 0.0026447396006590742 42.500000000000007 2354.5000000000005 0.0015720012104177019 776.50000000000011 0.0011147468792319446 84.500000000000014 146.37605000000005 1651.5000000000002 -0.0046855594708968265 145.15032000000005 -0.0019074620611473911 0.30924999999999975 0.003978401824074768 0.00073630514366884736 144.91577338708433 149.16521000000003 1358.5000000000002 115.81550000000001 0.0081789142825367204 147.81485000000004 147.75145042384264 155.80225000000004 128.46015000000003 131.42642000000004 130.59208000000004 -0.00067241821541130775 -0.00092752075255936306
decision_type=2 2 2 2 2 2 2 2 2 2 2 2 2 2 2 2 2 2 2 2 2 2 2 2 2 2 2 2 2 2
left_child=1 7 5 6 9 18 13 8 -1 19 -7 21 17 -3 25 -14 -15 -13 -2 -4 -21 -8 23 -12 -24 -6 27 -27 -5 -9
right_child=2 3 4 28 14 10 11 29 -10 -11 22 12 15 16 -16 -17 -18 -19 -20 20 -22 -23 24 -25 -26 26 -28 -29 -30 -31
leaf_value=-0.038988014757657632 -0.0029241510328016883 0.0017294649967644514 0.02101606634738195 0.12758907693829707 -0.0070611697794011026 0.0092720144974215435 0.025833536052930692 -0.0016702652474851892 0.10542312539186241 0.021177701743667354 0.03165125781974569 0.0046617672468378356 -0.0097037711001073286 -0.019561107912560192 0.087704043290600997 0.025957305639610059 0.0254921099682234 0.055941484697254074 -0.026513210724340749 -0.020382850420509913 0.041786139858654828 0.13315793113418026 0.004905586528530413 0.1630120724283638 0.065354181797317668 0.073916147362006204 0.053211478088555801 0.17905020231877972 0.046880670492494107 -0.026018119030020222
leaf_weight=1473.5258945673704 342.97734868526459 327.18449878692627 227.80915194749832 11.455546393990515 16.921708106994629 1062.5681053549051 119.74287556111813 119.53766585886478 7.5740737020969382 724.09927368164062 481.29985664784908 1522.1409408152103 1316.2872488647699 1783.346815854311 116.86291486024857 81.877667278051376 46.208083406090736 31.486187547445297 246.11626614630222 20.175397351384163 1307.6123281568289 6.7146319299936286 186.56886427104473 5.8294824063777915 20.750734582543373 23.805450677871704 363.37535545229912 9.1832531839609128 94.077566415071487 1777.9939050674438
leaf_count=10917 2507 2355 1620 82 120 7655 852 872 56 5159 3448 10926 9529 12948 802 584 333 227 1818 145 9253 47 1348 42 150 166 2565 64 680 13060
internal_value=-1.31439e-05 -0.0147012 0.0248257 -0.00469454 0.0381589 0.00885691 -0.00591087 -0.0305186 -0.0382495 0.0326145 0.0161111 0.000713754 -0.000606539 -0.015366 0.0620005 -0.00761543 -0.0184232 0.00570101 -0.0127794 0.0379382 0.0408415 0.0315322 0.0265756 0.0332233 0.0109559 0.0547324 0.0573705 0.103183 0.0556415 -0.0244843
internal_weight=13875.1 8719.15 5155.96 5340.52 2809.84 2346.11 5234.99 3378.63 1481.1 2279.7 1757.02 3078.25 2951.79 2156.74 530.149 1398.16 1829.55 1553.63 589.094 1555.6 1327.79 126.458 694.449 487.129 207.32 413.286 396.364 32.9887 105.533 1897.53
internal_count=100330 63468 36862 38563 19894 16968 37801 24905 10973 16177 12643 22165 21266 15636 3717 10113 13281 11153 4325 11018 9398 899 4988 3490 1498 2915 2795 230 762 13932
is_linear=0
shrinkage=0.05


Tree=2
num_leaves=31
num_cat=0
split_feature=18 18 18 2 11 18 1 7 2 13 7 3 19 7 7 19 13 7 9 18 15 3 16 7 9 7 11 15 14 16
split_gain=1721.39 434.638 279.422 131.426 113.017 112.216 82.1023 53.3142 42.5274 40.141 38.0862 36.8523 32.1938 31.9997 28.876 28.1106 26.0214 25.233 24.8339 23.1957 22.1068 39.7758 30.073 32.7336 29.7273 24.4543 22.5941 20.4592 25.4929 19.9524
threshold=0.097785714285719361 0.15557142857142739 0.059071428571428955 144.54250000000005 147.62589000000003 0.29164285714285809 116.14250000000001 -0.0010210250465023105 149.45850000000004 25.102047615584848 0.00057567148299042536 154.36850000000001 0.0015613438142292526 -0.00065517136276693744 -0.00056498514866937233 0.0049569913839378425 36.623091819513022 0.00058899479238916374 -0.00088439588816319181 0.11064285714285611 132.26456175918275 132.96950000000001 23.28420268712955 -0.00060591137380200377 0.0083830538236245884 0.00082940904724915232 121.86242000000001 147.08581420217828 146.28587397333879 11.728395061697285
decision_type=2 2 2 2 2 2 2 2 2 2 2 2 2 2 2 2 2 2 2 2 2 2 2 2 2 2 2 2 2 2
left_child=2 3 8 14 6 7 -4 -3 16 27 13 20 18 -8 -2 19 -1 -11 -6 -16 21 22 23 -9 26 -22 -24 28 -5 -30
right_child=1 5 4 9 12 -7 10 11 -10 17 -12 -13 -14 -15 15 -17 -18 -19 -20 -21 25 -23 24 -25 -26 -27 -28 -29 29 -31
leaf_value=-0.012674180226087756 0.028456941821745293 0.050006444850813382 -0.025319739229227728 -0.0088584155804815861 -0.010202913496356087 0.061422370970471644 0.023401835437665615 0.13838839039741424 -0.043633419359491117 -0.0047434814408765921 0.022665672116051559 0.0051472778906923068 -0.014182334198349696 -0.0045641344821864098 0.0047687284871912325 -0.036904871258736892 -0.031797533020469615 0.01167146506738191 -0.03176827807388248 0.01699879032632573 0.023070750190702139 0.14332182045647296 -0.042833168479365601 0.04947165833458473 0.10263930069149721 0.039651794381014842 0.028721228435768832 0.013320905312220549 0.044399735440345221 0.13234313797858552
leaf_weight=210.70327825844288 358.48074701428413 257.8781356960535 420.08667856454849 10.707149952650068 161.37619432806969 289.24706298112869 108.29746860265732 13.036736235022543 754.69842158257961 2006.577151671052 155.94246700406075 193.65990650653839 759.65776246786118 1843.4963194578886 527.7010964602232 27.766504928469658 1142.1170254349709 265.03796848654747 772.7397226691246 1461.2625908702612 1416.3324742466211 9.0386028885841352 11.589799329638479 50.235531508922577 13.093088194727896 263.78227189183235 229.31929662823677 113.53438566625118 14.812143042683603 11.423607006669043
leaf_count=1580 2518 1756 3110 76 1206 1925 772 88 5750 14538 1119 1379 5573 13474 3791 196 8590 1907 5803 10323 9885 60 83 340 86 1826 1584 806 105 81
internal_value=-2.59497e-05 0.0161054 -0.0192551 0.00702373 -0.0118321 0.0319642 -0.00513547 0.0284976 -0.034124 -0.00117161 -0.0011126 0.0259765 -0.0218263 -0.00301241 0.0153808 0.0130565 -0.028819 -0.00282829 -0.0280427 0.013754 0.027987 0.0398959 0.0369495 0.0677922 0.0292666 0.025674 0.0252788 0.0238376 0.0561581 0.0826922
internal_weight=13873.6 7544.52 6329.12 4797.3 4221.6 2747.21 2527.82 2457.97 2107.52 2422.09 2107.74 2200.09 1693.77 1951.79 2375.21 2016.73 1352.82 2271.62 934.116 1988.96 2006.43 326.313 317.274 63.2723 254.002 1680.11 240.909 150.477 36.9429 26.2358
internal_count=100330 53353 46977 34341 31057 19012 18475 17087 15920 17513 15365 15331 12582 14246 16828 14310 10170 16445 7009 14114 13952 2241 2181 428 1753 11711 1667 1068 262 186
is_linear=0
shrinkage=0.05


Tree=3
num_leaves=31
num_cat=0
split_feature=19 19 19 8 14 2 7 8 5 5 7 8 8 7 19 2 2 11 5 12 8 12 7 8 8 19 10 8 11 5
split_gain=1484.35 438.343 111.992 101.955 99.0417 108.316 65.9123 60.608 58.2913 55.6065 43.0995 38.7037 38.5645 34.1918 33.9319 33.8543 29.8294 69.6668 31.0831 28.8287 32.4209 28.2595 26.4109 26.3552 27.489 26.2498 26.0051 24.7238 22.3192 22.3023
threshold=0.0016541676906746104 0.0028808737894731235 0.0011147468792319446 -0.0023860290110313538 115.92842078722036 147.20950000000002 0.00073630514366884736 -0.0017842043537034666 69.500000000000014 84.500000000000014 -0.00097148833774685073 -0.00062182197328120015 0.0013029017461397843 -0.00086181596589501852 0.0043882640062383295 149.45850000000004 116.10350000000001 137.37728000000001 64.500000000000014 134.28201386258129 0.0011943903458738749 144.3602424400012 0.00052518259155154301 0.0015010078247061911 -0.001017519007563916 0.0038328035182758047 136.95495000000003 0.00091423642113319669 145.68169000000003 30.500000000000004
decision_type=2 2 2 2 2 2 2 2 2 2 2 2 2 2 2 2 2 2 2 2 2 2 2 2 2 2 2 2 2 2
left_child=2 4 9 14 -2 7 10 -6 23 15 -5 -4 13 -9 -3 -1 -13 18 27 -12 25 26 29 24 -7 -21 -14 -18 -23 -15
right_child=1 3 11 6 5 8 -8 12 -10 -11 19 16 21 22 -16 -17 17 -19 -20 20 -22 28 -24 -25 -26 -27 -28 -29 -30 -31
leaf_value=-0.028930576735607495 -0.024176488619040551 0.033213753524190842 -0.0048228897779215556 0.037520389996112687 0.038233822142474977 0.0057422057430805582 0.036320108810348362 0.033641407888905919 0.076254230110920085 0.096596149966917663 0.025174968959919792 -0.034501966124558102 0.015792893726238006 0.0019952007352979236 0.060501117453049195 -0.043647945917622097 -0.0050882921352636045 -0.023104875249887961 0.14020972785666258 0.004163707118560323 0.024759857670712152 -0.027967510126574797 0.018489209901638951 0.01218818462549278 -0.0099122341172232457 0.017784839243677009 0.043706182650142963 0.034934015640418953 0.023343394004294537 0.041179964589486362
leaf_weight=829.76197746396065 337.18279281258583 241.82033973932266 439.11350865662098 251.53761412203312 174.93489542603493 337.36482276022434 576.74665394425392 105.12527026236057 21.98110668361187 7.9636740982532492 624.87494347989559 348.37703627347946 183.09782053530216 2174.0697432607412 215.41183590888977 738.52605272829533 295.98301239311695 1548.6415033191442 4.0067616254091254 932.32124342024326 440.29475808143616 44.899472326040268 298.7283369153738 190.60801044106483 1661.6560339927673 569.91946333646774 153.30241253972054 44.372901156544685 40.140132710337639 36.929305419325829
leaf_count=6391 2521 1632 3255 1679 1209 2421 3902 732 156 56 4320 2657 1286 15587 1413 5798 2210 11667 30 6568 3028 318 2104 1378 12157 3923 1059 326 287 260
internal_value=-3.53275e-05 0.0108493 -0.024616 0.023904 0.00211697 0.00375185 0.0209194 0.00961622 -0.00476313 -0.035192 0.0177685 -0.0183969 0.00796743 0.0057052 0.0460694 -0.0358612 -0.0210562 -0.0185817 0.00175937 0.0158333 0.0128283 0.0220036 0.00453504 -0.00557644 -0.00727031 0.00933129 0.0285134 0.000129499 -0.0037479 0.00264969
internal_weight=13869.7 9612.95 4256.75 3852.93 5760.02 5422.84 3395.69 3211.23 2211.61 1576.25 2818.95 2680.49 3036.29 2614.85 457.232 1568.29 2241.38 1893 344.363 2567.41 1942.54 421.44 2509.73 2189.63 1999.02 1502.24 336.4 340.356 85.0396 2211
internal_count=100330 67940 32390 26465 41475 38954 23420 22842 16112 12245 19518 20145 21633 18683 3045 12189 16890 14233 2566 17839 13519 2950 17951 15956 14578 10491 2345 2536 605 15847
is_linear=0
shrinkage=0.05


Tree=4
num_leaves=31
num_cat=0
split_feature=4 4 4 5 15 9 3 4 7 9 5 5 10 9 3 5 9 11 12 11 11 8 14 15 16 0 14 4 12 14
split_gain=1588.98 230.345 224.361 200.575 113.802 103.123 102.563 65.7717 55.8801 55.3062 43.2546 35.0822 35.6175 39.3145 33.72 32.911 32.7902 32.5899 33.0331 31.6934 31.6131 29.5509 29.2738 39.3249 31.8877 28.3247 28.026 38.9903 27.5758 27.3863
threshold=1240.5000000000002 751.50000000000011 1783.5000000000002 43.500000000000007 147.23035889844508 -0.0019074620611473911 147.61950000000004 2582.5000000000005 0.00073630514366884736 -0.0010944658163481444 1.0000000180025095e-35 1.5000000000000002 152.29320000000004 0.0035533132098463098 152.56950000000003 125.50000000000001 0.00096966231751405296 151.83340000000004 154.0780827794953 151.92787000000001 147.54759000000004 -0.00090653997477890813 144.55904537612867 143.40419553354798 54.411764705762458 120.43000000000002 142.75169459132198 67.500000000000014 148.59560525290468 129.01203722577847
decision_type=2 2 2 2 2 2 2 2 2 2 2 2 2 2 2 2 2 2 2 2 2 2 2 2 2 2 2 2 2 2
left_child=1 3 6 5 20 -1 25 22 10 -6 -7 19 13 -13 -14 26 17 -11 -19 -8 -3 -12 23 -4 -25 -2 -5 -28 -15 -9
right_child=2 4 7 15 9 8 11 29 -10 16 21 12 14 28 -16 -17 -18 18 -20 -21 -22 -23 -24 24 -26 -27 27 -29 -30 -31
leaf_value=0.0017338788066935049 -0.011747255748747307 0.00098601076790224662 0.033213655067644211 0.061759708256369644 0.0013714304078776558 -0.010474406772839197 0.032747921085920638 -0.0037118499116887277 0.02376543035433001 -0.034076264678630071 -0.0076868782675967697 -0.016154694352281469 0.11047840283054351 -0.0094763863985111996 0.0072864761754353026 0.10690892465649343 -0.01058631091138499 0.011727763269846231 -0.024216757622952334 -0.0014660276251067545 0.055137035576665633 -0.030204699587328566 0.022568696278482028 0.12352656928316381 0.042907558148807722 0.020372811461484008 -0.024855730146341758 0.028776153381857669 0.069513295453544649 0.054727113759646465
leaf_weight=350.78167286515236 70.98717188835144 2489.0810271799564 868.89903086423874 35.172624006867409 401.40022619068623 342.13234461098909 137.13275036215782 21.118341565132141 54.176494106650352 500.34094072878361 152.81434144079685 499.92132589221001 8.1855282038450223 20.58531528711319 240.92940330505371 11.924490854144095 572.78487259894609 91.896573819220066 209.94227432459593 133.65833276510239 27.247224301099777 3129.362159833312 792.21999995410442 22.199551656842232 27.410046190023422 2072.4402827322483 48.69351202994585 111.45761077851057 23.851188138127327 395.51270395517349
leaf_count=2533 525 17847 5804 247 2914 2568 975 148 386 3834 1124 3699 57 144 1724 82 4262 684 1601 952 191 24029 5467 149 185 14316 359 807 167 2550
internal_value=-4.32525e-05 -0.0134306 0.0213593 -0.0217018 -0.00526772 -0.0241692 0.0130091 0.03395 -0.0266393 -0.0149571 -0.0273927 0.000320917 -0.00498231 -0.0121486 0.0106772 0.0262685 -0.019724 -0.0262486 -0.0132732 0.0158604 0.00157237 -0.0291563 0.0296114 0.0356857 0.0789834 0.019309 0.0213454 0.0124695 0.0329211 0.0517649
internal_weight=13864.3 8529.21 5335.05 4236.52 4292.69 4029.27 3207.69 2127.36 3678.49 1776.36 3624.31 1064.26 793.473 544.358 249.115 207.248 1374.96 802.18 301.839 270.791 2516.33 3282.18 1710.73 918.509 49.6096 2143.43 195.324 160.151 44.4365 416.631
internal_count=100330 63468 36862 32135 31333 30640 22559 14303 28107 13295 27721 7718 5791 4010 1781 1495 10381 6119 2285 1927 18038 25153 11605 6138 334 14841 1413 1166 311 2698
is_linear=0
shrinkage=0.05


Tree=5
num_leaves=31
num_cat=0
split_feature=4 19 18 4 5 4 15 15 7 5 1 3 19 1 4 18 17 14 8 1 8 2 18 18 5 15 12 13 12 15
split_gain=1427.08 428.769 262.63 135.122 121.125 123.98 70.0079 69.8097 45.5426 44.9635 44.3239 39.5448 45.1229 38.2463 32.4369 31.3156 30.4088 29.8634 29.6595 27.5933 31.6953 27.4875 25.6282 25.4186 23.2272 22.3166 32.4319 21.1383 20.0386 19.5187
threshold=1240.5000000000002 0.0014581765136658577 0.097785714285719361 2321.5000000000005 30.500000000000004 684.50000000000011 143.92516143806489 149.07313212241289 0.00073630514366884736 84.500000000000014 148.76950000000002 147.10750000000004 0.0038767310866076898 116.14250000000001 1559.5000000000002 0.15557142857142739 17.756343853906944 147.48693925346853 -0.0010934975302722692 129.21300000000002 0.0010740593701521475 147.30850000000001 0.30924999999999975 0.073642857142856052 1.0000000180025095e-35 151.97932036786725 153.01169944365577 67.018470537213432 148.24480262647009 156.54418667895169
decision_type=2 2 2 2 2 2 2 2 2 2 2 2 2 2 2 2 2 2 2 2 2 2 2 2 2 2 2 2 2 2
left_child=1 9 7 6 5 8 14 -2 18 10 13 17 28 -1 -4 -8 -6 27 -3 20 -15 -14 -5 -20 -12 -26 -27 -7 -13 -9
right_child=2 4 3 22 16 11 15 29 -10 -11 24 12 21 19 -16 -17 -18 -19 23 -21 -22 -23 -24 -25 25 26 -28 -29 -30 -31
leaf_value=-0.034585937937339571 0.0052424918510016886 0.0081914324932008033 0.019989230500859202 0.040377870470400812 -0.0049858996955862928 0.00015388978894308791 0.0078525852412514516 -0.027722041502535627 0.036778124245555391 0.055875023748825095 -0.014380444275971856 -0.020777134275685564 0.14665227639892792 0.00078670768720947497 0.032793481357790685 0.021595545902554848 0.051168132856974906 0.07870166204651094 -0.029579812240585496 -0.021118008104898417 0.14028412096167245 0.018144816362363734 0.064286925069241482 -0.016004484969624304 -0.046700139259878759 0.061097889097463776 -0.03373224520027289 0.012699405609032806 -0.0066887145405485366 0.020788426429498259
leaf_weight=572.50326930731535 664.76643367111683 97.564426988363266 839.46118564903736 576.18127985298634 30.372338861227036 1883.6220876798034 961.31582693755627 271.54739782959223 37.976678878068924 15.396170824766157 100.46343415975571 326.71366503834724 4.3294609785079947 93.83522579818964 1204.069115370512 728.74591983854771 116.90794793516397 12.892429605126379 498.88999603688717 879.81441139429808 4.2566702216863623 107.07445338368416 139.14945885539055 1116.5428920760751 531.65936870127916 9.1844286248087865 492.00411016494036 408.59681253880262 1109.5888789892197 22.450023896992207
leaf_count=4573 4809 705 5663 3699 207 13403 6804 2102 263 105 798 2413 29 733 7912 4877 801 88 3850 6862 32 736 827 8342 4335 73 3990 2903 8227 169
internal_value=-5.12461e-05 -0.0128869 0.0200061 0.0251213 -0.00517104 -0.0063474 0.0213072 -0.00372992 -0.0173794 -0.0293273 -0.0298161 -0.00133374 -0.00751572 -0.0243223 0.0275336 0.0137785 0.039588 0.00281698 -0.01858 -0.0183136 0.00684016 0.023139 0.0450288 -0.0201969 -0.0373318 -0.0395642 -0.0319945 0.00239018 -0.00989339 -0.0240177
internal_weight=13857.9 8450.19 5407.69 4448.92 5751.07 5603.79 3733.59 958.764 1750.97 2699.12 2683.72 3852.82 1547.71 1550.41 2043.53 1690.06 147.28 2305.11 1713 977.906 98.0919 111.404 715.331 1615.43 1133.31 1032.85 501.189 2292.22 1436.3 293.997
internal_count=100330 63468 36862 29782 41967 40959 25256 7080 13160 21501 21396 27799 11405 12200 13575 11681 1008 16394 12897 7627 765 765 4526 12192 9196 8398 4063 16306 10640 2271
is_linear=0
shrinkage=0.05


Tree=6
num_leaves=31
num_cat=0
split_feature=4 19 18 5 4 4 15 15 5 11 1 18 11 19 11 18 16 13 4 0 8 18 2 15 17 19 3 19 5 2
split_gain=1282.86 400.721 232.228 107.249 113.925 103.184 84.0247 53.1437 40.7302 42.9765 37.8895 36.2278 43.7545 32.9517 31.1993 30.6772 28.2836 27.8624 26.1765 24.7398 25.7891 24.5845 23.5847 23.4295 22.9631 22.9022 23.4031 22.211 21.8378 20.9938
threshold=1240.5000000000002 0.0014581765136658577 0.11014285714285423 30.500000000000004 684.50000000000011 2354.5000000000005 149.00306100384594 143.92516143806489 84.500000000000014 148.42563000000004 116.14250000000001 0.16607142857142829 145.42366000000001 0.0019694349205931307 130.59208000000004 0.073642857142856052 0.68793426118652301 36.842105262557943 1639.5000000000002 129.14100000000002 0.0010740593701521475 0.15557142857142739 127.80050000000001 143.40419553354798 17.756343853906944 0.0049569913839378425 137.00650000000005 0.002300306153313089 1.0000000180025095e-35 146.74050000000003
decision_type=2 2 2 2 2 2 2 2 2 2 2 2 2 2 2 2 2 2 2 2 2 2 2 2 2 2 2 2 2 2
left_child=1 8 6 4 15 7 13 18 9 10 -1 12 -6 -2 27 -3 -7 22 -4 20 -12 -9 -13 -20 -16 -18 -27 -5 -11 -28
right_child=2 3 5 14 11 16 -8 21 -10 28 19 17 -14 -15 24 -17 25 -19 23 -21 -22 -23 -24 -25 -26 26 29 -29 -30 -31
leaf_value=-0.033695846401937478 0.0021622335564744836 -0.026972330844259915 0.020693067796357701 0.062548345290823634 0.0023708167663098359 0.1342852101567116 -0.018690165043472394 0.0078537692077179158 0.051194624739971217 -0.013970886299326661 0.00074695234991766684 0.14422263590964352 -0.0088936600941537294 0.021035066574396615 -0.0084328237057750832 -0.012394733349192989 0.033947267368614219 0.0056457729788197391 0.030342872353659157 -0.020029494140425059 0.12110209300741295 0.020637471068876565 0.03110724038866244 0.060498897489702774 0.041119003629001803 0.031739103471863699 0.075567058470208587 0.21967637103563376 -0.038462286852211369 0.039393699338730624
leaf_weight=558.60234177112579 663.7022390216589 513.02721297740936 905.82000847160816 5.6716384887695295 1846.1654835045338 8.3430638760328275 384.62463767826557 749.89510284364223 15.948508769273756 99.820173420011997 93.886765405535698 4.8598481416702262 1617.2307258546352 354.98712982237339 29.541438981890678 1217.059898070991 391.49336847662926 291.91951778531075 925.98140773177147 838.46154745668173 4.6723916977643958 754.46473008394241 88.975631803274155 69.225471884012222 112.10613915324211 87.373373731970787 118.33475616574287 3.7269759178161621 1032.0181341990829 60.676759541034698
leaf_count=4573 4771 4025 5985 39 13148 50 2962 5260 105 801 733 32 12016 2457 202 9135 2456 2001 5928 6633 32 4978 602 438 743 517 698 24 8624 362
internal_value=-5.86213e-05 -0.0123638 0.0187617 -0.00493483 -0.00606034 0.0248072 0.00122108 0.0212866 -0.0284679 -0.0289515 -0.0233886 -0.00127025 -0.00288912 0.00873893 0.0366382 -0.0167175 0.0428028 0.0132644 0.026843 -0.017244 0.00645263 0.014265 0.0369656 0.0324405 0.0307847 0.0416426 0.0529521 0.124857 -0.0363023 0.0633059
internal_weight=13848.6 8373.69 5474.92 5730.28 5579.24 4071.61 1403.31 3405.39 2643.41 2627.46 1495.62 3849.15 3463.4 1018.69 151.046 1730.09 666.221 385.755 1901.03 937.021 98.5592 1504.36 93.8355 995.207 141.648 657.878 266.385 9.39861 1131.84 179.012
internal_count=100330 63468 36862 41967 40959 26672 10190 22589 21501 21396 11971 27799 25164 7228 1008 13160 4083 2635 12351 7398 765 10238 634 6366 945 4033 1577 63 9425 1060
is_linear=0
shrinkage=0.05


Tree=7
num_leaves=31
num_cat=0
split_feature=18 18 18 2 11 5 18 1 5 8 15 13 7 8 8 7 8 5 11 10 5 11 12 13 12 8 5 15 8 12
split_gain=1104.18 263.307 194.297 81.5389 80.012 70.1457 62.6676 58.8312 45.1282 41.1388 40.5807 32.1209 31.6135 40.1632 33.447 30.2829 26.3858 28.1018 25.8829 24.8037 24.5819 24.3681 23.4289 28.6911 23.2513 23.1943 22.459 22.3788 22.3601 22.1425
threshold=0.093857142857139322 0.15557142857142739 0.059071428571428955 144.54250000000005 147.62589000000003 67.500000000000014 0.29164285714285809 116.14250000000001 59.500000000000007 -0.0025117990876004077 149.07313212241289 25.102047615584848 0.00029894866843094286 -0.00088478902755217959 0.00089555978423483406 -0.0010210250465023105 0.0018659941114289593 3.5000000000000004 147.54759000000004 154.31810000000004 69.500000000000014 130.89172000000005 144.91577338708433 57.507031284008249 156.92827563326611 -0.00092752075255936306 3.5000000000000004 153.49407863069101 0.0019288751215004176 149.47242798167312
decision_type=2 2 2 2 2 2 2 2 2 2 2 2 2 2 2 2 2 2 2 2 2 2 2 2 2 2 2 2 2 2
left_child=2 3 8 9 7 25 15 -4 10 -2 26 -5 13 18 -15 -3 -11 21 -9 27 22 -18 -13 -24 28 -6 -1 -17 -25 -22
right_child=1 6 4 11 5 -7 -8 12 -10 16 -12 20 -14 14 -16 19 17 -19 -20 -21 29 -23 23 24 -26 -27 -28 -29 -30 -31
leaf_value=-0.034885725462474634 0.0437315778632444 0.036145793252095777 -0.022667846913507397 0.019688797684767827 -0.00081081192102009812 0.040827686909448435 0.044003865554467544 0.014008628480994066 0.015412958639204758 0.0082547497534338141 -0.041265877711803053 -0.025183133231159657 0.012088102524196676 -0.010338527537814602 0.015531716743027574 0.019867120319969664 -0.041982954800525878 0.0084622500547966648 0.12903763753269235 0.0021147160973174531 -0.026050827462155229 0.050695651322979568 -0.0065632875277484215 0.0038783050543456706 -0.024792446711552091 -0.023775323643516658 -0.020578511048622572 0.059377021147757503 0.028378430669459428 0.11542044221547701
leaf_weight=437.85101959109306 92.446729078888893 288.14737299084663 373.66117580235004 168.61918907612562 120.40748815983534 46.228391423821449 328.39373572170734 188.50775653123856 52.573487468063831 2373.3946266323328 681.529656291008 115.71687886118889 373.15647373348475 1124.8071439340711 140.55018617212772 2120.0584053248167 7.6217642724513999 109.51402160525322 5.0205829590558997 199.67275267839432 4.1825663745403281 102.14865697920322 1426.3521139025688 743.43035396188498 61.903041303157806 1266.325848415494 734.31831170618534 36.455963730812073 106.46354688704014 8.1657149791717512
leaf_count=3629 586 1756 2945 1169 909 321 1925 1340 396 16312 5901 825 2699 8468 1024 13712 50 727 36 1376 27 660 10433 5462 462 10141 5994 243 750 52
internal_value=-6.46074e-05 0.0114848 -0.0173372 0.00482474 -0.0105627 -0.0197615 0.0234035 -0.00458658 -0.0302683 0.0109566 -0.0315638 -0.00142417 -0.000898741 -0.00422054 -0.00746498 0.0208452 0.00978795 0.0263824 0.0169928 0.018974 -0.0028677 0.0442606 -0.00322181 -0.00213492 0.0047925 -0.0217814 -0.0259228 0.020535 0.00694736 0.0675018
internal_weight=13837.6 8292.69 5544.94 5319.96 3638.67 1432.96 2972.73 2205.7 1906.27 2685.13 1853.7 2634.83 1832.04 1458.89 1265.36 2644.33 2592.68 219.284 193.528 2356.19 2466.21 109.77 2453.87 2338.15 911.797 1386.73 1172.17 2156.51 849.894 12.3483
internal_count=100330 56527 43803 37515 27883 11371 19012 16512 15920 18335 15524 19180 13567 10868 9492 17087 17749 1437 1376 15331 18011 710 17932 17107 6674 11050 9623 13955 6212 79
is_linear=0
shrinkage=0.05


Tree=8
num_leaves=31
num_cat=0
split_feature=4 18 18 4 9 11 2 1 4 11 4 7 8 7 1 4 9 11 13 2 2 8 4 7 12 18 11 4 18 8
split_gain=1078.05 309.612 181.799 95.7796 61.7306 58.3249 56.0579 82.271 44.4288 40.5618 38.1001 33.4405 31.6096 30.9437 28.8277 25.1702 24.1266 22.9758 23.8966 21.6737 21.3848 21.3822 20.8803 19.7513 19.3132 19.3058 18.7581 17.662 17.5433 17.2068
threshold=1240.5000000000002 0.072642857142853304 0.097785714285719361 1684.5000000000002 -0.0021446685366494074 149.16521000000003 147.50950000000003 116.14250000000001 1003.5000000000001 132.73172000000002 2582.5000000000005 0.00061730279846516922 -0.00090653997477890813 -0.00067241821541130775 144.26750000000001 615.50000000000011 -0.012457237351427173 145.42366000000001 74.929377965674078 155.97750000000005 113.11950000000002 -0.00082771453228830383 474.50000000000006 0.0005614263531881215 146.2632037430935 0.043142857142854554 156.52950000000004 288.50000000000006 0.1647857142857185 -0.0035330540473688661
decision_type=2 2 2 2 2 2 2 2 2 2 2 2 2 2 2 2 2 2 2 2 2 2 2 2 2 2 2 2 2 2
left_child=1 6 5 14 16 -2 7 15 11 -9 24 13 -11 27 29 20 -3 18 -10 -15 -1 22 -8 -14 -5 -23 -7 -6 -18 -4
right_child=2 4 3 10 8 26 21 9 17 12 -12 -13 23 19 -16 -17 28 -19 -20 -21 -22 25 -24 -25 -26 -27 -28 -29 -30 -31
leaf_value=0.020995518206180199 0.0050546898566400655 0.12756856927271806 0.074085471683304024 0.028319354169048107 0.085545752336505368 -0.025806241769463806 0.043171237254645556 0.0082085369865390403 0.0034789294435027228 0.02858199666962772 0.041044349844259559 0.010236256539664805 -0.019369899347930583 -0.011077428012055883 0.0071248035610672836 -0.014392996798229384 0.0036663295750819017 -0.0063009327216312395 0.032363006926319458 -0.026192943778590789 -0.038018446771943104 -0.046882940623148399 -0.024265947497481535 0.026458889696375911 0.0180321639624078 -0.030962964379514502 0.022168846333482962 0.0088198919473179219 0.021466581309312734 0.018044611979580769
leaf_weight=15.788049422204493 665.74504006654024 4.1843000054359427 13.865388348698614 1343.7260615825653 8.0901480317115766 260.54133177548647 17.456259936094284 248.37401150166988 674.43681056052446 38.952569827437401 440.55783981084824 189.09827303886414 656.76169114559889 2500.2412537187338 1007.9686641544104 168.56721902638674 693.96545421332121 646.0345583409071 80.1133963316679 262.00314515084028 554.50553349405527 240.1576756760478 33.518066309392452 24.383161410689354 690.80392356216908 919.76272914558649 22.103587172925472 102.93199241906404 172.90891933441162 1129.1593520641327
leaf_count=131 4794 25 85 8354 51 2118 130 1930 4735 284 2567 1338 5248 18690 6898 1385 4958 4848 556 2064 4730 2166 270 181 4551 7869 168 738 1141 7327
internal_value=-6.90525e-05 -0.0115439 0.0169179 0.0210062 -0.00438039 -0.00302454 -0.0246375 -0.0188014 -0.00675672 -0.00921465 0.0277132 -0.0101305 -0.0152242 -0.0114709 0.0132888 -0.0313674 0.00779495 0.000620033 0.00654566 -0.0125112 -0.0363847 -0.0328663 -0.00117195 -0.0177294 0.0248264 -0.0342591 -0.0220545 0.0144109 0.00721681 0.0187244
internal_weight=13826.7 8252.24 5574.47 4626.08 5334.01 948.39 2918.23 1707.33 4462.95 968.471 2475.09 3062.36 720.097 2873.27 2150.99 738.861 871.059 1400.58 754.55 2762.24 570.294 1210.89 50.9743 681.145 2034.53 1159.92 282.645 111.022 866.874 1143.02
internal_count=100330 63468 36862 29782 39144 7080 24324 13889 33020 7643 15472 22881 5713 21543 14310 6246 6124 10139 5291 20754 4861 10435 400 5429 12905 10035 2286 789 6099 7412
is_linear=0
shrinkage=0.05


Tree=9
num_leaves=31
num_cat=0
split_feature=4 4 5 4 9 2 7 2 4 5 9 11 11 7 9 14 1 5 11 12 1 1 5 1 5 14 4 5 5 2
split_gain=970.539 170.77 145.771 125.823 77.4159 73.9462 45.856 44.9398 41.0223 39.8363 38.2519 35.9007 31.8398 30.2891 29.9701 28.0289 35.4147 27.593 26.7879 28.7539 25.5815 42.7484 22.7135 23.6858 22.4987 23.0667 32.9314 22.0446 36.3329 27.2403
threshold=1240.5000000000002 783.50000000000011 42.500000000000007 1639.5000000000002 -0.0019074620611473911 147.30850000000001 0.00034999767599785964 144.54250000000005 2354.5000000000005 2.5000000000000004 -0.0010944658163481444 147.70328000000003 144.35508000000002 -0.00067241821541130775 0.00096966231751405296 129.01203722577847 128.54350000000002 1.0000000180025095e-35 151.83340000000004 154.0780827794953 147.6765 116.14250000000001 3.5000000000000004 146.54850000000002 125.50000000000001 142.75169459132198 67.500000000000014 2.5000000000000004 3.5000000000000004 145.27350000000004
decision_type=2 2 2 2 2 2 2 2 2 2 2 2 2 2 2 2 2 2 2 2 2 2 2 2 2 2 2 2 2 2
left_child=1 2 4 7 -1 11 13 -2 12 -9 -7 27 -5 -6 18 -10 -17 -15 -12 -20 21 -19 23 -23 25 -4 -27 -3 -29 -30
right_child=3 5 24 8 6 10 -8 9 15 -11 14 -13 -14 17 -16 16 -18 20 19 -21 -22 22 -24 -25 -26 26 -28 28 29 -31
leaf_value=0.0012076082173635852 0.014195801075428276 0.011835924629352408 0.052287309830085144 0.024899953432452895 0.012411019320292069 0.0022294802994157685 -0.0064968826454930868 0.013770667080787792 -0.011037029206140997 -0.0050875126591590387 -0.030387918062555648 0.11169789050925594 0.012869035917585217 -0.010706249224940005 -0.0072035690030499205 0.17796924170251607 0.034274776006985606 -0.033308289468482383 0.013954075914321863 -0.02149201253105262 -0.032665370965930085 -0.035263813317819116 -0.012191527775992389 -0.0090218944501996006 0.084185724942392903 -0.024997841789991777 0.023936846868572146 -0.0091613116839547749 0.0073535591025175144 -0.021554790774501082
leaf_weight=382.41012688726187 1386.1028868257999 442.39571739733219 38.932958364486694 1233.7569805979729 54.880802996456623 375.95641820132732 401.18591600656509 418.77469985187054 34.440359637141228 845.30566505342722 437.85203842073679 7.4551574736833564 992.20265001058578 303.20470334589481 548.44082815945148 4.313737377524375 715.73831025511026 639.49376893043518 83.899731606245041 179.87828084826469 1075.9548507928848 270.71129609644413 766.88599063456059 126.01476012170315 13.55303670465946 48.754351027309895 116.61782664060593 742.70102342963219 1038.0473787859082 88.432327710092068
leaf_count=2797 9099 3121 255 7655 410 2751 3118 2897 226 6127 3638 47 6667 2383 4219 24 4167 5541 636 1467 9244 2119 6048 1008 82 363 811 5310 7435 665
internal_value=-7.30729e-05 -0.0110661 -0.0180342 0.0159044 -0.0201926 -0.00357946 -0.0224419 0.00797799 0.0229524 0.00115998 -0.0117545 0.00215261 0.0195373 -0.024418 -0.0159602 0.033028 0.0351356 -0.0250532 -0.0228049 -0.0102177 -0.0265641 -0.0229233 -0.017216 -0.0269284 0.0218003 0.0176619 0.00951012 0.00179931 -0.000576142 0.00508416
internal_weight=13814.3 8183.66 4238.6 5630.64 4020.74 3945.06 3638.33 2650.18 2980.45 1264.08 1626.03 2319.03 2225.96 3237.15 1250.07 754.492 720.052 3182.27 701.63 263.778 2879.06 1803.11 1163.61 396.726 217.858 204.305 165.372 2311.58 1869.18 1126.48
internal_count=100330 63468 34179 36862 32668 29289 29871 18123 18739 9024 12711 16578 14322 26753 9960 4417 4191 26343 5741 2103 23960 14716 9175 3127 1511 1429 1174 16531 13410 8100
is_linear=0
shrinkage=0.05


Tree=10
num_leaves=31
num_cat=0
split_feature=4 18 18 11 4 5 9 4 7 3 5 11 4 15 8 4 18 8 18 9 5 5 11 11 16 11 11 3 11 15
split_gain=875.919 234.755 182.297 80.6689 76.4996 71.2375 71.7703 52.8787 46.5528 44.6392 44.0465 38.2324 34.7513 33.9686 25.6307 25.2724 25.242 24.3569 23.346 22.7258 19.9633 38.9271 20.5284 19.5451 18.883 18.4725 20.6204 19.6226 18.3895 23.911
threshold=1149.5000000000002 0.059571428571427283 0.11064285714285611 147.62589000000003 1559.5000000000002 69.500000000000014 -0.0024246632939819985 712.50000000000011 0.00073630514366884736 147.10750000000004 62.500000000000007 147.54759000000004 2582.5000000000005 149.07313212241289 -0.001017519007563916 309.50000000000006 0.085000000000004919 -0.00090653997477890813 0.17350000000000323 -0.0012375076204702016 2.5000000000000004 3.5000000000000004 145.56834000000003 144.35508000000002 0.68793426118652301 138.86310000000003 139.54080000000002 134.07950000000002 149.11259000000004 147.67661272978845
decision_type=2 2 2 2 2 2 2 2 2 2 2 2 2 2 2 2 2 2 2 2 2 2 2 2 2 2 2 2 2 2
left_child=1 10 3 11 -4 6 18 8 17 20 13 -2 23 15 -12 -1 -5 -8 -3 -13 -9 -22 -23 25 -25 27 -27 -6 29 -26
right_child=2 5 4 16 12 -7 7 9 -10 -11 14 19 -14 -15 -16 -17 -18 -19 -20 -21 21 22 -24 24 28 26 -28 -29 -30 -31
leaf_value=-0.034520918528202264 0.0068092522881161013 0.0038596056721786984 0.010489116845720797 -0.023777586338989937 0.027258481411007947 0.038422926047810592 0.0019379291899132213 0.010992756693937707 0.03581265367336376 -0.012461731380698452 0.13829070931863324 0.18627142390771004 0.03650826179906206 -0.039728273176797863 0.0065923230635022215 -0.018651304274209541 -0.0042365832916047667 -0.018826330857158419 0.029759978666968639 0.050678840928698045 -0.013807705269520607 0.0054444352716723314 -0.028840751764473972 0.078494205499393357 0.01411502567245018 0.063776585549103093 0.029341151149893482 0.011716962214765302 0.023160589251061063 -0.013124524314921475
leaf_weight=396.85188636183739 1082.3738036826253 546.74554951488972 1768.5788790509105 331.23893847316504 466.90098987519741 85.199323713779449 153.41635237634182 324.27516007423401 42.356889568269253 1305.0546036213636 3.9913258999586096 3.8405397534370449 447.63701850175858 553.13759465515614 49.654512315988541 682.01228581368923 329.80768457055092 1778.0696430206299 103.46952138841152 15.816942282021044 507.01718715578318 822.97789586335421 46.105698332190514 12.01111128926277 490.94951206445694 47.537254959344864 508.56928206980228 359.46679785847664 440.39388306438923 96.378816559910774
leaf_count=3486 7528 3891 11724 2756 2794 542 1140 2284 289 10217 26 26 2496 5199 373 5867 2459 14309 666 115 3675 5909 352 74 3110 285 3051 2188 2857 642
internal_value=-7.64003e-05 -0.0117916 0.0134667 -0.000219047 0.0186687 -0.00695499 -0.00764176 -0.00968187 -0.0160399 -0.00550616 -0.0281886 0.00806431 0.0237095 -0.029654 0.0163909 -0.0244888 -0.0140282 -0.017177 0.00798116 0.07717 -0.000167692 -0.00279763 0.00362557 0.0213442 0.0161651 0.0252393 0.0322848 0.020498 0.0154367 0.0096451
internal_weight=13801.8 7400.34 6401.5 1763.08 4638.42 5714.69 5629.49 4979.27 1973.84 3005.43 1685.65 1102.03 2869.84 1632 53.6458 1078.86 661.047 1931.49 650.215 19.6575 1700.38 1376.1 869.084 2422.21 1039.73 1382.47 556.107 826.368 1027.72 587.328
internal_count=100330 58225 42105 12884 29221 43274 42732 38175 15738 22437 14951 7669 17497 14552 399 9353 5215 15449 4557 141 12220 9936 6261 15001 6683 8318 3336 4982 6609 3752
is_linear=0
shrinkage=0.05


Tree=11
num_leaves=31
num_cat=0
split_feature=19 4 18 5 4 9 18 11 3 7 3 4 5 4 11 5 19 13 3 10 18 17 4 17 11 19 13 18 13 13
split_gain=792.423 408.34 78.3068 57.6302 72.2887 46.49 45.6114 50.078 34.818 32.7762 31.8543 29.894 29.6325 26.5777 24.3988 24.0423 23.9222 23.3807 24.3335 29.2569 21.2954 21.0917 20.5333 19.8684 19.8194 25.2545 19.1882 18.9833 18.2779 17.9374
threshold=0.0016344352456750173 1358.5000000000002 0.059571428571427283 42.500000000000007 1003.5000000000001 -0.0024246632939819985 0.1427142857142881 113.14037 147.61950000000004 0.00041763915821635417 149.50650000000005 691.50000000000011 71.500000000000014 2321.5000000000005 147.70328000000003 68.500000000000014 0.0009476371766116064 24.607516561712632 121.89150000000002 132.57185000000001 0.17814285714285613 15.922584099489923 309.50000000000006 17.009641297362538 146.67044000000001 0.0044555377213439593 51.741293530087134 0.052357142857141638 32.696664255740139 27.760340471539589
decision_type=2 2 2 2 2 2 2 2 2 2 2 2 2 2 2 2 2 2 2 2 2 2 2 2 2 2 2 2 2 2
left_child=2 3 10 4 5 20 7 -3 11 26 15 14 29 24 -4 22 -17 23 -19 -20 -2 -5 -1 -9 25 28 -7 -18 -8 -10
right_child=1 6 8 21 -6 9 13 17 12 -11 -12 -13 -14 -15 -16 16 27 18 19 -21 -22 -23 -24 -25 -26 -27 -28 -29 -30 -31
leaf_value=-0.033101567824837544 0.0039163469132649882 0.19617587504064057 -0.020404054958963885 -0.012674352953591636 0.0045488791664696545 -0.016364694193361808 0.012966952539100683 0.021948820258112872 0.0063953840683163348 0.0035509714320211857 -0.037002942161231164 -0.00050777267749277301 0.044816673259946288 0.0311585029027617 0.11284757632483478 -0.04436970580611193 0.13235218752326108 -0.021219636515709302 0.030371280357224775 0.0088003979630538378 0.037051256263719433 0.043555892872789617 -0.018688097540804013 0.069682885001846231 0.012696664718037157 0.013365584448634164 -0.0074928650254182582 0.0016057275301560492 0.031477720237112171 -0.022526802570057913
leaf_weight=375.57256624847651 390.23465013504028 3.6929731369018546 320.97326520085335 20.273581624031067 2289.9072664305568 1118.7790304943919 162.98078611493111 98.520132601261139 56.90424732118845 422.06022784113884 596.71806358546019 674.50822052359581 17.484466634690762 700.77393065392971 3.4724524915218344 6.1269835904240635 6.6869171112775785 59.432319119572639 178.8347727060318 1298.9424212947488 55.370615139603615 93.998802244663239 722.31298385560513 27.993601217865944 652.92436470091343 429.25901411473751 1338.7707186192274 4.7470158785581589 733.70314641296864 925.74578486382961
leaf_count=3383 2771 25 2624 131 15916 8596 980 627 457 3074 5708 5029 121 3894 26 44 44 411 1124 8599 352 571 6269 177 4174 2534 10316 32 4458 7863
internal_value=-7.93394e-05 0.00719526 -0.0198307 -0.00157213 -0.00228751 -0.00699538 0.0187506 0.0122579 -0.0131092 -0.00932105 -0.0276785 -0.0065066 -0.0197039 0.0227907 -0.0189779 -0.0226904 0.0353511 0.0118497 0.0101492 0.0114108 0.00803367 0.0335798 -0.0236188 0.0325109 0.0198275 0.0233388 -0.0115317 0.0780703 0.0281132 -0.0208519
internal_weight=13787.7 10076.5 3711.25 5729.39 5615.12 3325.22 4347.06 1667.42 1999.09 2879.61 1712.16 998.954 1000.13 2679.64 324.446 1115.45 17.5609 1663.72 1537.21 1477.78 445.605 114.272 1097.89 126.514 1978.87 1325.94 2457.55 11.4339 896.684 982.65
internal_count=100330 68730 31600 41727 41025 25109 27003 10963 16120 21986 15480 7679 8441 16040 2650 9772 120 10938 10134 9723 3123 702 9652 804 12146 7972 18912 76 5438 8320
is_linear=0
shrinkage=0.05


Tree=12
num_leaves=31
num_cat=0
split_feature=19 4 18 14 9 10 4 4 4 15 15 3 12 18 8 17 8 13 18 14 15 12 15 10 15 18 14 0 4 16
split_gain=722.636 363.166 75.1841 52.5783 44.5328 47.7355 44.4331 41.1892 40.3006 30.0974 27.3706 27.2438 33.0952 30.4836 26.7987 28.6525 24.0482 30.3749 29.1769 22.2292 34.8709 20.7286 24.39 20.4313 20.216 19.6015 19.5174 20.7856 18.9415 18.8839
threshold=0.0016344352456750173 1358.5000000000002 0.050642857142855859 115.92842078722036 -0.0024246632939819985 129.84105000000002 1003.5000000000001 857.50000000000011 2354.5000000000005 147.50002092757282 149.07313212241289 147.71350000000004 148.82632903041537 0.10521428571428311 -0.0020776625692398016 28.590147060044444 -0.001017519007563916 53.695955368810154 0.22242857142857073 129.01203722577847 128.37073984350187 155.54205649920735 155.41081185346988 154.69720000000004 128.37073984350187 0.060642857142853356 113.3092473073164 120.43000000000002 320.50000000000006 0.68793426118652301
decision_type=2 2 2 2 2 2 2 2 2 2 2 2 2 2 2 2 2 2 2 2 2 2 2 2 2 2 2 2 2 2
left_child=2 3 10 -2 5 14 16 -4 11 -9 28 26 -13 -14 -5 -16 25 18 -18 -10 -21 -7 -23 -11 -8 -6 -3 -28 -1 -22
right_child=1 8 7 4 6 21 24 9 19 23 -12 12 13 -15 15 -17 17 -19 -20 20 29 22 -24 -25 -26 -27 27 -29 -30 -31
leaf_value=-0.033640239596177166 -0.020926290069488401 0.14210859835946318 -0.020579552692912409 -0.053764419284887746 0.11077715002553773 0.0044098828313088824 0.025687915222100399 -0.00034606070390580818 -0.013720127814607975 -0.02009170744327092 -0.041248270498867014 -0.009332208884851723 -0.016093812488595812 0.016770998490641797 0.09744960126251051 0.028950120864761009 -0.014270857459480755 -0.0026142383433197507 0.095610957906755403 0.12624102658241651 0.096762172177694714 0.099743054711468548 0.019184842753425305 0.0038999191682540062 0.0025192061031405781 0.0066208204983673391 -0.01281922024303284 0.018441110275073468 -0.016513951575068572 0.02754977518893045
leaf_weight=297.70526414364576 328.24200788140297 3.1618345975875846 1382.8034909442067 5.6105163395404807 4.602238103747367 692.08362929522991 99.536183550953865 628.71031328290701 30.679103508591652 507.94219113886356 379.59492129087448 211.91752544045448 79.296432390809059 640.24702687561512 28.216589942574501 33.261790156364441 1148.7889882028103 1332.5873812660575 6.0732069015502921 9.2394378930330259 9.9915044605731946 11.773959994316099 46.516524463891983 107.52428511530161 1740.6799588352442 244.12584239244461 54.272003620862961 2633.1093122065067 352.73382116854191 722.15943819284439
leaf_count=2749 2636 19 11967 35 29 4688 667 4688 194 4351 3792 1424 589 4170 183 223 8794 10088 42 47 51 78 330 917 12176 1758 377 16148 3136 3984
internal_value=-8.1643e-05 0.00680437 -0.01913 -0.00149739 -0.000315048 0.0104344 -0.00223519 -0.0146408 0.0176152 -0.00804039 -0.0305791 0.0154044 0.00803441 0.0131492 0.0508427 0.0603892 -0.00627558 -0.00775784 -0.013693 0.0279866 0.0297125 0.00682165 0.0354566 -0.0159003 0.00377239 0.00854803 0.0179559 0.0178098 -0.0243526 0.0284943
internal_weight=13773.2 10116.2 3657.01 5722.1 5393.86 817.463 4576.39 2626.98 4394.07 1244.18 1030.03 3622 931.461 719.543 67.0889 61.4784 2736.18 2487.45 1154.86 772.069 741.39 750.374 58.2905 615.466 1840.22 248.728 2690.54 2687.38 650.439 732.151
internal_count=100330 68730 31600 41727 39091 5537 33554 21923 27003 9956 9677 22727 6183 4759 441 406 20711 18924 8836 4276 4082 5096 408 5268 12843 1787 16544 16525 5885 4035
is_linear=0
shrinkage=0.05


Tree=13
num_leaves=31
num_cat=0
split_feature=19 4 19 14 4 9 11 4 19 2 4 13 0 8 13 11 8 16 4 14 19 11 19 13 14 8 11 4 2 1
split_gain=658.764 323.397 72.1018 48.2446 40.8855 39.9462 42.0157 40.2473 37.4285 27.9856 27.9705 23.1583 22.3996 22.0883 31.475 21.848 21.5465 26.0038 21.3538 21.751 20.0873 19.0774 21.2043 18.3888 17.8602 17.7756 17.7215 17.3269 20.1691 17.3179
threshold=0.0016344352456750173 1358.5000000000002 0.0011147468792319446 115.92842078722036 857.50000000000011 -0.0024246632939819985 131.13916000000003 1003.5000000000001 0.0026447396006590742 149.45850000000004 320.50000000000006 34.665715643161917 120.43000000000002 -0.00090653997477890813 53.695955368810154 113.14037 -0.0020776625692398016 10.433218642412482 2354.5000000000005 146.98147628770374 0.0044555377213439593 148.64116000000004 0.0036224435197779576 66.031367650326573 114.03103635229202 -0.00092752075255936306 145.42366000000001 1559.5000000000002 158.54300000000003 151.91850000000002
decision_type=2 2 2 2 2 2 2 2 2 2 2 2 2 2 2 2 2 2 2 2 2 2 2 2 2 2 2 2 2 2
left_child=2 3 9 24 25 6 16 13 15 10 -1 -12 -10 -7 -15 -3 -5 -18 19 20 -14 -21 -23 26 -2 -4 -9 -17 -29 -11
right_child=1 8 4 5 -6 7 -8 23 12 29 11 -13 18 14 -16 27 17 -19 -20 21 -22 22 -24 -25 -26 -27 -28 28 -30 -31
leaf_value=-0.035094035742759482 -0.0050065263081322427 0.13459991182615741 0.0040504445821581518 -0.045985942083447695 -0.0057533217896906094 0.0066532794777820915 0.0060476846035531469 0.0055650307729855873 -0.023161184108052287 -0.044158296298591554 0.012073776365055381 -0.01883464969736675 0.024620600931487314 -0.013825364808671838 -0.0023709342645456735 0.0023043795493535731 0.13375540151695867 0.0405735135789266 0.02795572400646202 -0.00093754972354349918 0.012101961429178422 0.0059953116152169136 0.027855684979766201 0.012282619626474915 -0.02928015216747943 -0.020617664447272355 -0.0058633645359049249 0.013271309006319586 0.13135466825800796 -0.026895142213045804
leaf_weight=240.27299060672522 121.19697416573763 3.5093350112438193 77.739157043397427 6.223021760582923 1031.7404905185103 306.57285714894533 739.57665622234344 798.90524441003799 30.073437556624413 308.30158025771379 71.557611539959908 395.86357479542494 1137.2968275099993 1102.2876900509 1315.4381130561233 513.24936736375093 8.4035291969776136 68.655017077922821 683.65927703678608 239.89511960744858 446.1430779248476 229.52882549166679 214.68694946169853 456.27852126955986 202.22545028477907 1205.1471730694175 589.51511286199093 936.27392723411322 3.630196899175643 274.73495302349329
leaf_count=2273 979 20 610 40 8142 2203 5002 5396 201 3113 619 3527 6745 8526 9982 3451 53 442 3670 1512 2585 1479 1317 3144 1657 10603 4303 5999 24 2713
internal_value=-8.34136e-05 0.00643618 -0.0184436 -0.00142719 -0.0131634 -0.000302085 0.00983906 -0.00212846 0.0165628 -0.0279123 -0.0212297 -0.0141029 0.0197724 -0.00599003 -0.00759323 0.00999373 0.0435081 0.0507354 0.0202099 0.0178746 0.0210934 0.0104244 0.0165603 0.0035744 -0.020184 -0.0191228 0.000712601 0.00969281 0.0137274 -0.0360237
internal_weight=13758.6 10153.2 3605.36 5715.28 2314.63 5391.86 822.858 4569 4437.95 1290.73 707.694 467.421 2981.28 2724.3 2417.73 1456.66 83.2816 77.0585 2951.21 2267.55 1583.44 684.111 444.216 1844.7 323.422 1282.89 1388.42 1453.15 939.904 583.037
internal_count=100330 68730 31600 41727 19355 39091 5537 33554 27003 12245 6419 4146 17509 20711 18508 9494 535 495 17308 13638 9330 4308 2796 12843 2636 11213 9699 9474 6023 5826
is_linear=0
shrinkage=0.05


Tree=14
num_leaves=31
num_cat=0
split_feature=19 4 19 5 4 4 5 4 5 0 2 4 9 9 13 5 11 1 19 5 17 0 11 12 2 12 14 5 5 9
split_gain=600.784 291.427 66.2697 52.3926 61.8133 35.1133 34.7902 33.3154 32.6736 36.2628 28.8217 29.6113 23.1951 22.7641 21.7602 19.6726 22.0736 24.4069 20.5553 19.3062 19.0906 18.6301 18.1861 26.3063 19.4618 18.3603 20.5811 19.1512 27.5983 26.2723
threshold=0.0016246140676082035 1358.5000000000002 0.0011147468792319446 42.500000000000007 783.50000000000011 857.50000000000011 84.500000000000014 1639.5000000000002 27.500000000000004 142.07250000000002 149.45850000000004 320.50000000000006 -0.0046855594708968265 -0.0018629121594127549 34.665715643161917 1.5000000000000002 147.62589000000003 154.77550000000005 0.0014480679027471398 1.5000000000000002 15.922584099489923 154.85300000000004 145.00946000000002 144.91577338708433 144.67950000000005 115.62021433920701 125.72251755481636 2.5000000000000004 3.5000000000000004 0.0062738460047983011
decision_type=2 2 2 2 2 2 2 2 2 2 2 2 2 2 2 2 2 2 2 2 2 2 2 2 2 2 2 2 2 2
left_child=2 3 6 4 13 8 10 -3 -4 -10 11 -1 -6 -2 -13 18 -17 -18 -7 21 -5 -15 23 24 25 -14 -27 -28 -29 -30
right_child=1 7 5 20 12 15 -8 -9 9 -11 -12 14 22 19 -16 16 17 -19 -20 -21 -22 -23 -24 -25 -26 26 27 28 29 -31
leaf_value=-0.035665437949995889 0.0023454763870826129 0.0096005796221758487 -0.02061993658901877 -0.012517472237565006 0.018883192194586132 0.045502212754621713 0.068557574974137322 0.018682106923816656 0.063478591729961606 -0.0088174741167036975 -0.036234054121402105 0.011553729692005269 -0.015884959505227624 -0.0023289071371517156 -0.018361269269519691 -0.0014004180186017196 -0.023563334991647103 0.0079298989732676777 -0.0046790119082633762 -0.014594684002007597 0.040913538741941431 0.078670360402425213 -0.0032196285603810189 0.05225861192425129 -0.032842831479035849 0.029639324052355094 0.016492787654579375 -0.0060693126162218222 0.0068438015099563446 0.083498846866462084
leaf_weight=229.67261561751366 337.8579682931304 1534.1434793323278 1155.9753382503986 20.205992370843887 185.31221732497215 36.624455749988556 9.432639464735983 2955.1448158323765 24.000336274504662 62.547809787094593 562.34770291298628 72.013832814991474 109.46892160922289 281.70504071563482 389.99436770379543 537.38416459411383 302.20757585018873 77.244949877262115 46.086115546524525 1281.1711788475513 96.832665219902992 7.2824610471725455 1595.3227023109794 27.816788777709007 36.568741694092751 82.247822351753712 260.45919169485569 630.15736301243305 785.02378180623055 11.339278116822241
leaf_count=2248 2440 9786 10347 131 1179 303 56 17289 187 490 5798 618 834 2202 3525 4019 2604 649 361 10366 576 58 11765 189 261 562 1743 4333 5338 73
internal_value=-8.4563e-05 0.00603256 -0.0179499 -0.00142209 -0.00211021 -0.0127892 -0.0271078 0.0155786 -0.0184014 0.0112307 -0.0278273 -0.0209925 0.00163946 -0.00942812 -0.0136984 -0.00581281 -0.00791966 -0.0171523 0.0175414 -0.0119615 0.031689 -0.000287732 0.000736377 0.00398436 0.00328324 0.00398643 0.00521595 0.00402521 0.00174883 0.00793528
internal_weight=13743.6 10238.1 3505.53 5748.77 5631.73 2242.07 1263.46 4489.29 1242.52 86.5481 1254.03 691.681 3723.72 1908.02 462.008 999.547 916.837 379.453 82.7106 1570.16 117.039 288.988 3538.4 1943.08 1915.27 1878.7 1769.23 1686.98 1426.52 796.363
internal_count=100330 69125 31205 42050 41343 18960 12245 27075 11024 677 12189 6391 26277 15066 4143 7936 7272 3253 664 12626 707 2260 25098 13333 13144 12883 12049 11487 9744 5411
is_linear=0
shrinkage=0.05


Tree=15
num_leaves=31
num_cat=0
split_feature=19 4 5 4 18 19 3 7 5 4 4 5 18 14 11 15 11 8 13 17 19 19 3 14 0 13 17 15 15 11
split_gain=547.768 271.747 61.4468 62.0073 55.8764 39.0261 34.4162 31.3077 28.0293 25.8815 23.9203 29.618 23.5223 23.1927 22.9601 22.58 25.6376 21.8449 21.9092 21.5553 18.6788 18.5561 30.7336 29.9956 28.1442 26.4376 18.4537 18.4513 20.5384 19.621
threshold=0.0015720012104177019 1298.5000000000002 27.500000000000004 684.50000000000011 0.048071428571429216 0.0026447396006590742 147.61950000000004 0.00073630514366884736 51.500000000000007 551.50000000000011 808.50000000000011 1.5000000000000002 0.30924999999999975 154.79994353437709 149.16521000000003 149.07313212241289 148.81944000000004 -0.00075800422159200121 58.486707564788681 75.05083618823214 0.0031234990532473688 0.0073105535447985743 144.96550000000005 146.8746580668851 133.91750000000005 41.972383600808605 17.756343853906944 147.67661272978845 146.62050010728856 149.11259000000004
decision_type=2 2 2 2 2 2 2 2 2 2 2 2 2 2 2 2 2 2 2 2 2 2 2 2 2 2 2 2 2 2
left_child=4 2 3 7 15 27 9 -2 10 -6 -8 19 -7 14 -13 16 -1 -5 20 -12 -19 22 -14 -24 -23 -25 -4 28 -3 -29
right_child=1 5 26 17 6 12 8 -9 -10 -11 11 13 21 -15 -16 -17 -18 18 -20 -21 -22 24 23 25 -26 -27 -28 29 -30 -31
leaf_value=-0.024362551198533453 -0.013243903392908008 0.0086131086327501782 -0.0079371459774745419 0.0071843987227935592 -0.01894441086657277 0.015877289973759316 -0.029577025841539623 0.034671946693408229 0.020297073967488109 -0.0034104021253042621 0.037233499092925317 -0.0093245057417291489 0.072276704233681113 0.0016981075420255971 -0.032929782505437918 -0.040652279692263045 0.087979579836647073 -0.0080872825301680894 0.0031826768412061136 -0.027770612122389418 0.0039100142566987515 -0.021477149521810818 -0.042944493956124416 0.10058353856058895 0.030691554448180954 0.010938761824215909 0.036198647007470254 -0.01708963397087538 0.027634191513173076 0.0056269978430485467
leaf_weight=506.80939728021622 1380.2068050578237 1072.6823370978236 28.858775563538074 859.35710532218218 397.28215242177248 2958.9052093625069 535.61212135106325 34.953819207847118 40.813807405531406 824.88861137628555 42.951233066618443 166.29645988345146 57.561361029744148 110.44314729422331 270.70444779843092 292.43943656235933 5.1298646777868262 1411.4878834411502 1286.5174460932612 18.138705059885979 421.25733864307404 31.92516365647316 14.153516069054602 12.813859418034552 135.92137107253075 22.96386082470417 132.05716437846422 128.76567170768976 163.55639161169529 363.0803629681468
leaf_count=4856 11267 6753 192 6014 3563 17322 5205 236 321 6559 356 1445 295 975 2552 3199 47 10489 9276 152 2841 163 74 68 701 121 817 899 1076 2496
internal_value=-8.56011e-05 0.00543345 -0.00216315 -0.00307147 -0.0181593 0.0139369 -0.0143468 -0.0120604 -0.0204186 -0.00845993 -0.021871 -0.0150884 0.017178 -0.0187733 -0.023947 -0.0295684 -0.0232368 0.000125811 -0.00181883 0.0179326 -0.0053297 0.0311564 0.0473762 0.0186706 0.0207688 0.0430452 0.0282833 0.00787078 0.0111296 -0.000320234
internal_weight=13728.5 10517 5554.7 5393.78 3211.51 4962.33 2407.13 1415.16 1184.96 1222.17 1144.15 608.534 3234.24 547.444 437.001 804.379 511.939 3978.62 3119.26 61.0899 1832.75 275.339 107.493 49.9312 167.847 35.7777 160.916 1728.08 1236.24 491.846
internal_count=100330 71100 41132 40123 29230 29968 21128 11503 11006 10122 10685 5480 18744 4972 3997 8102 4903 28620 22606 508 13330 1422 558 263 864 189 1009 11224 7829 3395
is_linear=0
shrinkage=0.05


Tree=16
num_leaves=31
num_cat=0
split_feature=19 4 18 5 4 3 5 18 11 4 4 9 15 11 4 8 8 4 12 14 8 18 11 12 18 17 5 5 9 5
split_gain=500.183 233.292 62.0502 41.703 51.4475 35.9725 33.2136 29.6944 29.9322 27.9049 23.8124 21.3961 21.299 23.9966 22.0644 20.5425 22.2317 19.4753 18.8359 18.4925 17.5953 17.1752 16.6529 23.1897 16.7168 16.5806 16.0455 28.1465 16.6065 16.0452
threshold=0.0016246140676082035 1358.5000000000002 0.048071428571429216 42.500000000000007 776.50000000000011 147.61950000000004 51.500000000000007 0.1427142857142881 113.14037 551.50000000000011 1233.5000000000002 -0.0058140486549310691 149.07313212241289 148.50245000000001 684.50000000000011 -0.00090653997477890813 0.00041126100858690512 1770.5000000000002 155.34535336182697 147.79742996029185 -0.0012969207640461387 0.22242857142857073 145.00946000000002 144.91577338708433 0.29164285714285809 62.551378776103896 3.5000000000000004 2.5000000000000004 0.0062738460047983011 6.5000000000000009
decision_type=2 2 2 2 2 2 2 2 2 2 2 2 2 2 2 2 2 2 2 2 2 2 2 2 2 2 2 2 2 2
left_child=2 3 12 4 15 9 10 8 -3 19 20 25 13 -1 -15 -2 21 -9 -12 -4 -7 -17 23 24 26 -6 27 -13 -28 -18
right_child=1 7 5 -5 11 6 -8 17 -10 -11 18 22 -14 14 -16 16 29 -19 -20 -21 -22 -23 -24 -25 -26 -27 28 -29 -30 -31
leaf_value=-0.024453243701606255 0.0062764746161490283 0.13457490299579949 -0.018872868575422627 0.027750670991156696 0.0207579394169892 0.029878746931283551 0.022948167141610368 0.011617177827413944 0.0083727680955548826 -0.0024546835533612722 -0.011775411564884781 0.011218423665119558 -0.039934398419430223 0.014699363132405314 0.19085322386179046 -0.015524955422764176 -0.0047737377448464806 0.020211675025921305 0.033925865536552739 0.088121065964735748 -0.025243311679951332 0.064724049594064262 -0.0028949627716670229 0.047684771180929175 0.086785704508184777 0.12516786684914305 0.0066981829441922327 -0.0071736678149049247 0.065774198324539165 0.033311104348622979
leaf_weight=496.74948512762785 202.08964107185602 4.7110861390829077 425.95974922180176 120.91811542212963 87.66208490729332 14.706584148108957 45.389433294534683 1049.3961303830147 1737.562208943069 929.51244346052408 249.46589225530624 298.96390185505152 283.18907181173563 8.9849659502506238 2.2161105126142493 1039.567612119019 568.24603497236967 1772.4919664561749 24.786176159977913 4.0771381482481948 928.4525945931673 6.7105309739708892 1653.6195703446865 29.7535090893507 5.9659982770681372 3.9747997969388953 993.17984315752983 683.81933379918337 12.040031880140303 29.070199690759182
leaf_count=4846 1489 25 3858 707 539 119 348 6260 11010 7355 2190 1991 3200 85 20 8506 4519 9780 195 33 8956 44 12178 196 35 24 6783 4744 74 221
internal_value=-8.62662e-05 0.00541105 -0.0166737 -0.00130167 -0.00192734 -0.0129709 -0.0190472 0.0138466 0.00871402 -0.00732703 -0.020613 0.00142198 -0.028947 -0.0228213 0.0495511 -0.00876683 -0.0106165 0.0170156 -0.00764505 -0.0178585 -0.0243838 -0.0150103 0.000827288 0.0038688 0.00321499 0.0252868 0.0029642 -0.00157877 0.00740577 -0.00292022
internal_weight=13713.2 10299.7 3413.49 5735.58 5614.66 2622.35 1262.8 4564.16 1742.27 1359.55 1217.41 3768.98 791.14 507.951 11.2011 1845.68 1643.59 2821.89 274.252 430.037 943.159 1046.28 3677.34 2023.72 1993.97 91.6369 1988 982.783 1005.22 597.316
internal_count=100330 69125 31205 42050 41343 23054 11808 27075 11035 11246 11460 26564 8151 4951 105 14779 13290 16040 2385 3891 9075 8550 26001 13823 13627 563 13592 6735 6857 4740
is_linear=0
shrinkage=0.05


Tree=17
num_leaves=31
num_cat=0
split_feature=19 4 5 18 4 4 3 8 4 1 14 15 5 7 18 18 5 11 7 19 19 8 7 5 4 16 5 18 4 18
split_gain=456.774 218.779 55.79 50.1129 49.7485 38.8081 30.0047 24.0616 22.0221 21.6033 27.575 21.5315 23.3445 20.2399 19.2735 17.8064 17.7483 19.1308 18.0419 26.6363 17.4925 17.3 16.8787 16.7646 22.9769 22.0929 18.7097 16.6095 16.1119 15.8136
threshold=0.0015720012104177019 1149.5000000000002 27.500000000000004 0.048071428571429216 1639.5000000000002 594.50000000000011 147.61950000000004 -0.00075800422159200121 551.50000000000011 156.11150000000001 156.61070984288543 149.07313212241289 84.500000000000014 -0.00065517136276693744 0.1427142857142881 0.12457142857142349 1.0000000180025095e-35 143.22687000000005 0.00015854376497070891 0.0020569624072872927 0.0026447396006590742 -0.001017519007563916 0.00060261685300999634 1.5000000000000002 876.50000000000011 60.360360359950398 61.500000000000007 0.13528571428571165 320.50000000000006 0.065142857142860638
decision_type=2 2 2 2 2 2 2 2 2 2 2 2 2 2 2 2 2 2 2 2 2 2 2 2 2 2 2 2 2 2
left_child=3 2 5 11 20 16 8 -8 21 10 13 12 28 -7 -6 23 17 18 19 -2 27 -5 -15 24 -9 -26 -25 -3 -1 -4
right_child=1 4 29 6 14 9 7 15 -10 -11 -12 -13 -14 22 -16 -17 -18 -19 -20 -21 -22 -23 -24 26 25 -27 -28 -29 -30 -31
leaf_value=-0.032288020361306256 0.13230312648560205 0.0048820832514933944 0.0638838517384238 0.036684252403615246 0.0096669329285645183 0.013401496484233909 0.0032610891931794251 -0.020542664137465166 -0.0031306086691926132 -0.01851855479034975 0.096967561632812005 -0.039206188224819721 0.092096336327867623 -0.0035242292286246837 0.018261783182624013 0.10639687989715663 -0.016009470472970563 -0.0040327552284880079 0.10899014776526438 -0.039924915453380949 0.010279988940285865 -0.019664902740615466 0.0090776530594500714 -0.025394484735178031 0.063215949526247706 -0.0083732785033674931 0.013410728168440448 -0.0099157327692293504 -0.014129159601729431 0.018955714301383701
leaf_weight=233.07889293134212 3.1414537727832812 1224.0947395935655 22.702937670052052 14.138297535479067 943.29835041612387 220.71723559498787 109.38210421055555 77.259658634662628 821.50051905959845 185.98199248313904 7.1677540838718405 274.11973865330219 4.4634533524513236 2705.5636542066932 2114.1130586713552 2.71890615671873 836.31111716479063 120.89919459074736 7.7029234990477553 7.8665150701999664 1510.6205748617649 372.35297549515963 294.6477819532156 884.6482505351305 20.162434622645378 23.151804260909557 32.192132651805878 224.38781586289406 256.67457963526249 142.62800331413746
leaf_count=2422 25 8378 140 114 5799 1542 942 738 6559 1472 44 3199 26 20168 11649 21 7024 970 57 61 9372 3449 2054 8697 166 195 247 1477 2455 868
internal_value=-8.64316e-05 0.00487841 -0.00338786 -0.0168779 0.0111371 -0.00446169 -0.0132637 -0.0190462 -0.00776117 -0.00194824 -0.000993569 -0.0279674 -0.0217337 -0.00121157 0.01561 -0.021392 -0.0132545 0.00324862 0.0502967 0.00922552 0.0065156 -0.0176036 -0.00228661 -0.021727 -0.00419982 0.0249509 -0.024032 0.00258972 -0.0227712 0.0251252
internal_weight=13697.7 10571.8 4555.33 3125.84 6016.51 4390 2357.51 1149.52 1207.99 3414.08 3228.1 768.337 494.217 3220.93 3057.41 1040.13 975.921 139.61 18.7109 11.008 2959.1 386.491 3000.21 1037.41 120.574 43.3142 916.84 1448.48 489.753 165.331
internal_count=100330 71100 34425 29230 36675 33417 21128 11006 10122 25280 23808 8102 4903 23764 17448 10064 8137 1113 143 86 19227 3563 22222 10043 1099 361 8944 9855 4877 1008
is_linear=0
shrinkage=0.05


Tree=18
num_leaves=31
num_cat=0
split_feature=19 18 14 2 19 5 18 8 18 19 8 5 2 13 13 12 13 8 12 3 8 14 2 18 2 2 5 17 5 5
split_gain=416.57 121.3 49.5323 54.4121 47.5141 35.9426 41.7805 34.4352 28.977 26.706 26.5699 26.3792 42.7697 25.5692 24.2472 23.0978 21.469 30.87 28.9054 20.6173 19.0508 18.9645 69.9819 21.4434 19.5469 18.6374 23.3565 20.2535 18.3022 18.0154
threshold=0.0015720012104177019 0.15557142857142739 115.92842078722036 144.54250000000005 0.00098790043834477335 66.500000000000014 0.076071428571428942 -0.0017842043537034666 0.30924999999999975 0.0049569913839378425 0.0010965758716648957 6.5000000000000009 113.53450000000002 29.249131395439758 78.104051435560478 147.29167508070037 57.894736841134936 -0.00060675934421106071 144.83084812719548 143.24950000000004 -0.0002444217051018604 116.20231697302206 133.48400000000001 0.034214285714286176 113.40750000000001 135.92450000000005 2.5000000000000004 86.256794492928506 64.500000000000014 2.5000000000000004
decision_type=2 2 2 2 2 2 2 2 2 2 2 2 2 2 2 2 2 2 2 2 2 2 2 2 2 2 2 2 2 2
left_child=4 2 11 7 -1 6 -5 19 -3 10 25 -2 -13 20 -12 -7 17 -8 -18 -4 -6 24 23 -23 29 27 -27 -9 -25 -15
right_child=1 8 3 5 13 15 16 9 -10 -11 14 12 -14 21 -16 -17 18 -19 -20 -21 -22 22 -24 28 -26 26 -28 -29 -30 -31
leaf_value=-0.026990628776221354 -0.018070082276837856 0.01110163248763087 0.018556264518289484 -0.025151693623850502 0.012382119378778112 -0.021007386548717963 0.002915699962728429 0.0093712099702854407 0.027289757617787409 -0.039305941483904525 0.009817785266894162 0.22211620839849633 -0.012520532766136089 -0.056678768502129773 0.034421607951071659 0.048926542036906606 -0.032291808411053294 -0.0099531108013838493 0.0054914008161000699 0.060409242269903719 -0.030328843686350485 0.1662797923087781 -0.015230235352668087 0.015007830233863243 -0.027817189559778258 0.011979230570804789 -0.0041045275049165489 -0.016070843969697823 0.14098740042758895 0.057749750197289319
leaf_weight=772.62288727611303 387.49820795655251 2979.3922822549939 212.37095242738724 204.9559588432312 153.96175419539213 15.185438901185988 759.13494843244553 1152.2226044088602 304.71198891103268 33.687518052756786 536.78857641667128 3.0186639800667745 5.4460470974445343 4.7246324121952084 123.10214302688837 53.067203521728516 53.147280022501945 1206.9032172039151 1064.5007963255048 34.15800516307354 31.439409039914608 2.4572859629988661 1629.9453701674938 151.4478911459446 322.98577766120434 284.00839425623417 1099.8360361456871 83.920513674616814 2.9389292150735846 12.647148758172987
leaf_count=8295 3197 17472 1256 1736 1278 91 5336 7988 1540 226 3406 23 47 46 760 303 376 9176 7855 203 287 22 14729 1263 3172 1965 7532 612 18 120
internal_value=-8.64036e-05 0.00462101 0.00103617 0.00202072 -0.0162556 -0.00254618 -0.00329152 0.00632695 0.0126036 0.00498565 0.00544056 -0.0161627 0.071155 -0.012669 0.0144076 0.033367 -0.0018386 -0.00498415 0.0036947 0.0243552 0.00513941 -0.0142212 -0.0121607 0.0197384 -0.0250383 0.00318205 -0.000803635 0.00764397 0.017406 0.0266284
internal_weight=13682.2 10597.1 7312.95 6916.99 3085.17 3356.89 3288.64 3560.09 3284.1 3313.57 3279.88 395.963 8.46471 2312.55 659.891 68.2526 3083.69 1966.04 1117.65 246.529 185.401 2127.15 1786.79 156.844 340.358 2619.99 1383.84 1236.14 154.387 17.3718
internal_count=100330 71100 52088 48821 29230 24873 24479 23948 19012 22489 22263 3267 70 20935 4166 394 22743 14512 8231 1459 1565 19370 16032 1303 3338 18097 9497 8600 1281 166
is_linear=0
shrinkage=0.05


Tree=19
num_leaves=31
num_cat=0
split_feature=4 8 4 7 4 3 1 10 15 14 7 11 15 4 7 7 14 13 7 7 4 13 14 12 11 8 11 2 8 11
split_gain=387.575 77.7384 73.8562 57.9336 37.8981 30.8573 30.0677 37.0855 27.7045 30.4851 23.9845 23.8949 19.9397 18.946 15.5026 15.1241 14.876 14.3135 13.6786 16.9372 13.8873 13.4606 13.0458 14.1864 21.5326 13.2455 22.7458 13.5488 13.4371 12.694
threshold=1055.5000000000002 -0.00075800422159200121 1559.5000000000002 0.00057567148299042536 629.50000000000011 147.61950000000004 116.14250000000001 142.65555000000003 146.26972598338838 146.64331820182522 -0.0002569192289736954 142.57123000000004 113.30545205642748 2582.5000000000005 -0.0007105031386129278 -0.00028105116358956289 149.08847388991896 13.103174602952196 -0.00075309497175563001 1.0000000180025095e-35 182.50000000000003 28.530049623908145 147.95941665305091 148.82632903041537 148.81944000000004 0.0020709266389730145 149.94887000000003 158.54300000000003 -0.0013654545031307472 115.02558000000001
decision_type=2 2 2 2 2 2 2 2 2 2 2 2 2 2 2 2 2 2 2 2 2 2 2 2 2 2 2 2 2 2
left_child=1 18 5 4 6 -2 12 11 9 -6 -7 14 -3 22 -8 -9 -12 -18 -1 -20 -21 29 -4 -24 -25 27 -27 28 -26 -14
right_child=2 3 13 -5 8 10 7 15 -10 -11 16 -13 21 -15 -16 -17 17 -19 19 20 -22 -23 23 24 25 26 -28 -29 -30 -31
leaf_value=0.022268922334222018 0.0058030802322702468 0.0082749133536395951 0.013027311771246134 0.0084623828296090404 -0.0047149152930383012 0.0074066019406627288 0.089089005034739932 -0.0040368095604294144 -0.014197232042950279 0.068645124063464694 -0.019659801974786867 0.066510815552959152 0.052271469249143915 0.021326289571328774 -0.0062291849959145839 -0.021416062146735922 0.080170395817796836 -0.0051249116290254613 -0.002760707484386094 0.053341172687556115 0.0096337909309925068 -0.032924767137279612 -0.0053046938966630833 0.082043918933883173 0.017371056721061633 0.085618468879724074 0.01479924167035275 0.065384705714319757 6.8416940348372254e-06 -0.030341433921286409
leaf_weight=96.106495335698128 2530.9083607792854 34.324731737375259 2334.4073492884636 334.60951096564531 1337.3197101950645 347.98664470016956 4.2996806278824797 141.03866711258888 1282.4338996261358 14.313052028417586 211.02728240191936 11.776724547147749 9.1911563873291033 525.67743297666311 540.25040806084871 1113.5898386389017 4.9534070342779151 698.86592178046703 528.04462610185146 19.787181988358498 222.90763390809298 450.48510452359915 214.71696757525206 10.075588718056677 153.8389955535531 14.041705831885336 58.885106012225151 9.382017716765402 403.98626979440451 9.4109580591320974
leaf_count=655 16664 317 13418 2429 10212 2534 30 1231 11264 101 1614 85 91 2698 4640 10676 34 5481 4003 130 1652 4678 1368 66 922 83 346 60 2758 90
internal_value=-8.63495e-05 -0.0093958 0.00752823 -0.0116729 -0.0130344 0.00261778 -0.0177026 -0.0146978 -0.00893289 -0.00393807 -0.00376603 -0.00395269 -0.0285118 0.0125293 -0.00547657 -0.0194624 -0.00801584 -0.00452461 0.00448214 0.00226424 0.0131973 -0.0312036 0.0110838 0.00583849 0.00951828 0.00837674 0.0284351 0.00579779 0.00479561 0.0104769
internal_weight=13668.6 6149.89 7518.75 5283.04 4948.43 3793.74 2314.37 1810.96 2634.07 1351.63 1262.83 556.327 503.412 3725.01 544.55 1254.63 914.847 703.819 866.846 770.739 242.695 469.087 3199.33 864.927 650.21 640.134 72.9268 567.207 557.825 18.6021
internal_count=100330 52284 48046 45844 43415 26327 21838 16662 21577 10313 9663 4755 5176 21719 4670 11907 7129 5515 6440 5785 1782 4859 19021 5603 4235 4169 429 3740 3680 181
is_linear=0
shrinkage=0.05


Tree=20
num_leaves=31
num_cat=0
split_feature=19 19 19 14 9 8 2 2 13 8 8 8 12 12 19 12 1 9 9 14 2 15 3 11 13 7 19 19 2 10
split_gain=357.893 86.0398 43.9498 37.917 29.3114 28.9064 27.0059 24.6072 24.3331 23.9501 21.852 19.5502 19.3446 22.7977 18.2918 22.0044 41.3574 21.9084 17.4423 18.7133 73.0893 17.1151 16.7908 16.7755 20.81 16.6815 16.2873 18.7684 16.286 15.2568
threshold=0.0015720012104177019 0.0027032212831655804 0.0011147468792319446 115.92842078722036 -0.0015830996007101803 -0.0014379784314708097 120.52850000000002 149.45850000000004 34.665715643161917 0.0007945780012935667 -0.001017519007563916 0.00050538613324768733 151.82560324534984 154.0780827794953 0.0043882640062383295 141.44643007555018 141.57750000000001 -0.0016187176816058189 -0.00093441756885476168 116.20231697302206 133.48400000000001 132.04074056725085 149.42450000000005 136.08627000000004 50.865943107358348 -0.00065517136276693744 0.0009476371766116064 0.0010780399174733812 113.40750000000001 157.20835000000002
decision_type=2 2 2 2 2 2 2 2 2 2 2 2 2 2 2 2 2 2 2 2 2 2 2 2 2 2 2 2 2 2
left_child=2 3 7 28 6 14 -5 8 -1 10 -6 21 -9 26 -3 25 -17 -18 -4 -20 -21 -7 -10 24 -8 -16 -14 -28 -2 -13
right_child=1 5 18 4 9 11 23 12 22 -11 -12 29 13 -15 15 16 17 -19 19 20 -22 -23 -24 -25 -26 -27 27 -29 -30 -31
leaf_value=0.0069129249456901121 0.0099169430538903029 0.011245933186834381 -0.00050426490013266354 0.14353642063161121 0.0076308279633798565 0.013436797567611077 0.017526005897088203 -0.041084680526660255 -0.021411354837615224 0.0051385816691590473 -0.0049598382400987103 0.011041427635686869 -0.0092730589688633357 -0.027447593525213143 0.029144096681102766 0.16817330864367488 0.041259308590872089 0.0052770250551933302 -0.026208364848960553 0.02564741311894958 -0.014438641464981035 0.0014634311776801326 0.074934904692765203 0.004925371003925553 0.093876386850795981 -0.0022048763136617157 0.095647031885914446 -0.056101678923755297 -0.021598677936149769 -0.03055460949618008
leaf_weight=94.227266758680344 48.320881836116314 682.54127797484398 349.38056259602308 3.6830221191048613 397.0435374006629 362.33414894342422 183.36847567558289 252.5918430313468 540.33392311632633 1168.2939892560244 2609.7580996751785 1925.3230434134603 21.448598280549049 210.77604481577873 74.903570294380188 5.6952635645866385 158.81088274717331 57.66323184967041 224.85341884940863 125.76429407298565 1186.5933145359159 1693.0522788316011 4.5602757558226577 862.03481062501669 9.3812229931354505 97.898252964019775 9.5365397632122022 2.5912427827715865 270.28150288760662 22.299739636480808
leaf_count=875 383 3952 2970 27 2669 2282 1193 3026 5497 8052 19615 11557 239 2435 380 29 827 315 2258 1025 10732 10794 47 5922 66 524 99 27 2363 150
internal_value=-8.54989e-05 0.00423037 -0.0152673 -7.21303e-05 0.000947356 0.00893229 0.00837898 -0.0230367 -0.016548 -0.000936705 -0.00329726 0.00697556 -0.0313819 -0.021352 0.0162016 0.0247655 0.0351737 0.0316745 -0.0105887 -0.0128807 -0.0105972 0.00357416 -0.020605 0.00790705 0.021242 0.0113838 0.0169129 0.0632241 -0.0168189 0.0105652
internal_weight=13655.3 10632.7 3022.66 5552.17 5233.56 5080.52 1058.47 1136.07 639.121 4175.1 3006.8 4003.01 496.944 244.352 1077.51 394.971 222.169 216.474 1886.59 1537.21 1312.36 2055.39 544.894 1054.78 192.75 172.802 33.5764 12.1278 318.602 1947.62
internal_count=100330 71100 29230 40290 37544 30810 7208 12245 6419 30336 22284 24783 5826 2800 6027 2075 1171 1142 16985 14015 11757 13076 5544 7181 1259 904 365 126 2746 11707
is_linear=0
shrinkage=0.05


Tree=21
num_leaves=31
num_cat=0
split_feature=4 19 19 5 4 4 18 13 8 19 15 9 12 12 3 14 5 10 15 18 16 15 8 8 8 18 10 9 5 12
split_gain=332.208 111.684 69.6675 54.1953 48.6045 29.4337 25.6516 24.7706 24.1469 23.8487 21.1784 21.0789 21.0544 29.0319 20.9453 25.6127 20.306 21.1696 22.5062 18.0723 17.4059 17.352 16.7472 16.7303 16.6668 16.5724 16.2663 24.9729 18.308 15.5486
threshold=1055.5000000000002 0.0014581765136658577 0.001306737860351335 27.500000000000004 1628.5000000000002 615.50000000000011 0.036714285714289481 32.1428571414571 -0.0002444217051018604 0.00050893666689877197 114.51741804571235 -0.0055323992748932396 142.65531645127896 147.29167508070037 149.50650000000005 149.54092079567604 88.500000000000014 147.24660000000003 147.08581420217828 0.075571428571431107 0.68793426118652301 147.18407919821507 -0.00075800422159200121 0.00077936529979805169 -0.001329870410360978 0.1427142857142881 155.66325000000003 0.0013136502570993971 1.0000000180025095e-35 156.17358426640905
decision_type=2 2 2 2 2 2 2 2 2 2 2 2 2 2 2 2 2 2 2 2 2 2 2 2 2 2 2 2 2 2
left_child=1 6 14 5 -4 19 -1 8 10 -9 -8 -7 -5 -14 15 -2 17 18 -11 24 -6 -15 -13 -21 -3 -22 28 29 -16 -28
right_child=2 3 4 12 20 11 7 9 -10 16 -12 22 13 21 26 -17 -18 -19 -20 23 25 -23 -24 -25 -26 -27 27 -29 -30 -31
leaf_value=-0.03493591158961018 -0.0051963067524767132 0.069991673391340298 0.004266296904627394 0.049257574934006544 0.051614860691697975 0.029422227512565541 0.098352190689913882 0.1427567592985248 -0.030561886915604908 -0.014344866471245605 0.0073949874262975281 0.0047217916792550996 -0.01883980028768862 0.11812950751609175 0.045330920448014088 0.16386188068285804 0.047937916753806313 -0.02553029120156617 0.081859368888642897 -0.010885078932082662 0.0070686209489410345 0.02362005413423917 -0.0051702755687123882 0.0087900603214949909 -0.021552418804068871 0.014686868662021721 0.11934716500258889 0.13449386875168245 -0.036089644028359132 -0.030677757645553406
leaf_weight=220.81849507242441 221.07083523273468 5.0324697718024245 3898.1792851611972 51.611813776195049 28.243143677711487 50.114601418375969 6.7571824267506591 2.2786182090640059 44.501027092337608 715.58453360944986 120.96088431030512 527.9162817671895 49.324846863746643 5.1697030514478675 7.2506950870156279 2.263322800397872 11.201852321624754 748.19889040291309 6.1314010992646208 633.55294826626778 1061.4406423792243 80.210990987718105 2257.6240238323808 130.25998436659575 413.88299206644297 2180.0156759917736 1.9858214855194116 3.6491030752658835 144.46425458788872 13.253380343317984
leaf_count=2591 1837 39 25955 317 147 307 63 29 452 6957 1107 3783 307 29 61 21 69 8197 59 5258 6565 483 17325 1043 3869 11713 19 33 1570 125
internal_value=-8.47924e-05 -0.00878524 0.00691202 -0.00425864 0.00803712 -0.00548095 -0.0189284 -0.0167934 0.00115581 -0.0188773 0.0122073 -0.00271731 0.0221036 0.0116997 -0.0135597 -0.00348303 -0.019126 -0.019637 -0.0135276 -0.0121069 0.0125327 0.0293425 -0.00329553 -0.0075297 -0.0204527 0.0121922 -0.0267509 0.0170052 -0.0321984 -0.011128
internal_weight=13642.9 6081.13 7561.82 4204.7 7167.88 4018.38 1876.43 1655.61 172.219 1483.4 127.718 2835.65 186.317 134.706 393.937 223.334 1481.12 1469.91 721.716 1182.73 3269.7 85.3807 2785.54 763.813 418.915 3241.46 170.603 18.8883 151.715 15.2392
internal_count=100330 52284 48046 32760 44380 31624 19524 16933 1622 15311 1170 21415 1136 819 3666 1858 15282 15213 7016 10209 18425 512 21108 6301 3908 18278 1808 177 1631 144
is_linear=0
shrinkage=0.05


Tree=22
num_leaves=31
num_cat=0
split_feature=4 19 19 5 4 4 18 13 8 19 18 3 5 10 15 17 7 15 7 3 12 0 15 18 9 15 18 8 10 9
split_gain=300.656 103.515 62.9982 48.5341 43.853 26.9917 24.5674 22.9615 22.0987 19.688 19.652 19.6289 19.1799 22.6359 22.6518 18.6474 17.9315 17.4263 16.9606 16.9259 25.7169 21.3218 16.9885 16.8394 16.5207 16.448 15.3632 15.2055 15.133 20.2609
threshold=1055.5000000000002 0.0014581765136658577 0.001306737860351335 27.500000000000004 1559.5000000000002 615.50000000000011 0.036714285714289481 32.1428571414571 -0.0002444217051018604 0.00050893666689877197 0.24142857142857518 149.50650000000005 62.500000000000007 147.24660000000003 147.08581420217828 18.478246170545287 -0.00065517136276693744 114.51741804571235 0.00082940904724915232 142.56250000000003 147.54453495965356 148.16550000000004 141.84010594542599 0.075571428571431107 0.0016945902388543212 153.64373071851597 0.1427142857142881 0.00077936529979805169 155.66325000000003 0.0013136502570993971
decision_type=2 2 2 2 2 2 2 2 2 2 2 2 2 2 2 2 2 2 2 2 2 2 2 2 2 2 2 2 2 2
left_child=1 6 11 5 -4 23 -1 8 17 -9 16 -2 13 14 -11 -5 -7 -8 -15 22 -21 -22 -17 -3 -12 -23 -6 -25 -13 -30
right_child=2 3 4 15 26 10 7 9 -10 12 24 28 -14 18 -16 19 -18 -19 -20 20 21 25 -24 27 -26 -27 -28 -29 29 -31
leaf_value=-0.034168502062459159 -0.0033225003227118038 -0.019742973934578995 0.0036040042352698913 -0.011890898229926422 0.0069878605319765343 0.012564137217219476 0.086681427158911681 0.12032823757131084 -0.029749542649985999 -0.014042605435228596 0.067585519896338694 -0.031411362090587758 0.011536230257739304 -0.026299580996448392 0.083092599274757234 0.041278652019620554 -0.0040096038762658165 0.0069858923392998361 0.12042572756508692 -0.012862626541852537 0.098930051676322725 0.0070934990399314354 0.1276928440920661 -0.010423968547162344 -0.021374656728419667 0.068112609500029578 0.013766955666456228 0.0082978758818211366 -0.010706464973704654 0.11552460338095967
leaf_weight=214.64737620204687 222.80340269953012 412.48020645976067 3513.5288962423801 35.558841466903687 1280.9247686192393 173.99089847505093 7.2692005559802046 2.5599500462412825 43.457247003912926 697.37462412565947 17.746183246374134 147.86700561642647 51.430895328521729 702.14978715777397 6.0540102422237387 37.697803430259228 2631.0189119949937 121.62460047006607 1.975114308297633 42.178250342607498 11.511088110506533 39.643877126276493 6.6981104463338843 628.62826128304005 7.3930453211069098 15.308511599898337 2404.7683573514223 131.06565058231354 15.120054945349695 4.0250341221690169
leaf_count=2591 1858 3908 23519 230 7959 1216 63 29 452 6870 103 1631 417 7921 55 226 20048 1107 19 258 65 234 37 5258 48 86 12902 1043 144 33
internal_value=-8.42359e-05 -0.00840906 0.00654077 -0.00406163 0.00760083 -0.00522965 -0.0182653 -0.0161761 0.00108458 -0.0182115 -0.00258712 -0.0130366 -0.0184546 -0.0195504 -0.0132066 0.0207256 -0.00298156 0.0114805 -0.025888 0.0283042 0.0176745 0.0370536 0.0543162 -0.0116099 0.0414238 0.0240921 0.011411 -0.007194 -0.0259957 0.0158322
internal_weight=13628.5 6039.46 7589.04 4190.92 7199.22 4002.32 1848.54 1633.9 172.351 1461.54 2830.15 389.815 1458.98 1407.55 703.429 188.596 2805.01 128.894 704.125 153.038 108.642 66.4635 44.3959 1172.17 25.1392 54.9524 3685.69 759.694 167.012 19.1451
internal_count=100330 52284 48046 32760 44380 31624 19524 16933 1622 15311 21415 3666 15282 14865 6925 1136 21264 1170 7940 906 643 385 263 10209 151 320 20861 6301 1808 177
is_linear=0
shrinkage=0.05


Tree=23
num_leaves=31
num_cat=0
split_feature=4 18 18 4 15 7 7 8 8 3 15 14 18 15 15 8 9 4 13 7 9 18 13 18 16 7 14 13 10 11
split_gain=272.253 76.3033 59.3251 44.2571 34.7321 33.9661 33.5651 25.0137 22.9 21.1194 23.825 42.0286 20.7761 18.3207 16.5899 16.5802 18.9457 15.8693 13.6853 13.8641 13.0388 12.8513 13.9963 16.7667 14.6336 13.5943 12.4933 12.8735 12.0298 12.7956
threshold=997.50000000000011 0.059071428571428955 0.087499999999998593 1559.5000000000002 147.50002092757282 -0.00065517136276693744 0.00030497353769531893 -0.0011423826474722951 -0.00088478902755217959 147.66950000000003 119.34997253546261 122.07481516992051 0.33464285714285741 155.5260041146428 157.85826733530845 0.00086143489918266713 -0.0024246632939819985 320.50000000000006 25.619175136496448 -0.00037601824157273972 0.0013136502570993971 0.29164285714285809 26.989664613352371 0.12964285714285803 12.598425196775072 7.194552816991441e-05 129.4268180655703 39.501409428674314 155.34450000000004 136.08627000000004
decision_type=2 2 2 2 2 2 2 2 2 2 2 2 2 2 2 2 2 2 2 2 2 2 2 2 2 2 2 2 2 2
left_child=1 7 4 21 -2 -3 8 18 -7 10 17 -12 -8 -6 15 16 28 -9 -1 -20 -15 22 23 24 -4 -26 -13 -28 29 -10
right_child=2 5 3 -5 13 6 12 9 14 -11 11 26 -14 20 -16 -17 -18 -19 19 -21 -22 -23 -24 -25 25 -27 27 -29 -30 -31
leaf_value=-0.016859102082577578 0.0023679864969682633 0.014771464092417622 0.013040212488227874 0.011321803888338658 -0.019172756163805066 0.0021708125435255386 0.0018683912285934634 -0.033897910443340999 0.019028715324171705 -0.028934803952967533 0.11693869672729079 0.017016521182599231 0.11488307822247859 0.00093455892256013445 -0.033285095318527323 -0.00015309481237041659 -0.012783287526979407 -0.014730394403082129 0.00084218935620002523 0.1151524755313699 0.068007086373083156 0.031523215898350825 0.0020777452179845455 0.0031809905759981071 0.073843945808896957 0.022301869208804531 0.0067205250307604261 -0.017732954173347845 0.043448211789284784 -0.0089165415789221672
leaf_weight=6.9076433479785946 636.78143060952425 197.61106155067682 72.268997468054295 3574.2061328440905 403.45055022835732 414.90909707546234 839.8684368506074 191.16575199365616 58.260626226663589 454.66574065387249 6.872997246682643 43.500988408923149 4.0864213854074469 35.93325187265873 77.124191783368587 384.83302368223667 2119.7615509256721 248.17404641956091 4.2357063889503488 7.096727438271043 9.0760095268487913 40.101866915822029 3121.5217234417796 165.58866037428379 25.498961202800274 25.673690535128117 71.381768919527531 218.78155093640089 16.813891597092152 137.96042948961258
leaf_count=53 4700 1367 476 19913 3969 3036 6496 2231 415 5599 61 387 21 327 767 3059 18353 2612 36 54 74 222 20781 1010 170 172 681 2180 120 988
internal_value=-8.33579e-05 -0.00866627 0.00574153 0.00742235 -0.00513854 -0.00547045 -0.00645723 -0.0195111 -0.00879027 -0.0203698 -0.0153765 -0.00545011 0.00241561 -0.0157973 -0.0104176 -0.00976859 -0.0113548 -0.0230706 0.0386137 0.0724269 0.0144596 0.00338328 0.0030524 0.0135787 0.0275265 0.0479849 -0.00797114 -0.0117173 0.00285882 -0.000619225
internal_weight=13614.1 5504.01 8110.1 7024.86 1085.24 4251.23 4053.62 1252.78 3209.66 1234.54 779.877 340.537 843.955 448.46 2794.75 2717.63 2332.8 439.34 18.2401 11.3324 45.0093 3450.65 3410.55 289.03 123.442 51.1727 333.664 290.163 213.035 196.221
internal_count=100330 48516 51814 42744 9070 34622 33255 13894 26738 13751 8152 3309 6517 4370 23702 22935 19876 4843 143 90 401 22831 22609 1828 818 342 3248 2861 1523 1403
is_linear=0
shrinkage=0.05


Tree=24
num_leaves=31
num_cat=0
split_feature=19 4 18 7 7 4 11 15 15 9 11 13 11 12 15 4 2 8 8 18 7 4 11 19 19 4 18 12 13 17
split_gain=252.291 117.779 37.8419 24.9268 24.9947 24.2903 22.1012 20.7143 23.8759 19.4423 18.7937 24.735 19.9534 18.6176 17.6235 17.5236 17.6711 17.2153 18.9969 17.5461 17.2244 17.1473 16.1106 17.8188 16.0438 15.8138 15.1749 18.3877 18.7261 18.2133
threshold=0.0015720012104177019 1149.5000000000002 0.048071428571429216 -0.00065517136276693744 0.00061730279846516922 1783.5000000000002 148.42563000000004 149.07313212241289 148.35664229370505 -0.002755497318926436 151.74134000000004 17.757066015815855 161.34594000000001 158.52689483021248 149.50204793146841 751.50000000000011 113.40750000000001 -0.00075800422159200121 0.0007213915128869709 0.081999999999998227 8.3857091666139655e-06 684.50000000000011 145.42366000000001 0.0019779138254130838 0.0018991252335090823 213.50000000000003 0.10571428571428398 148.91422282992104 13.103174602952196 91.180174017723161
decision_type=2 2 2 2 2 2 2 2 2 2 2 2 2 2 2 2 2 2 2 2 2 2 2 2 2 2 2 2 2 2
left_child=2 3 7 25 9 22 15 8 -1 -5 11 14 -12 17 -8 -4 -17 19 -19 20 -11 -10 23 -3 -24 -2 -26 29 -29 -28
right_child=1 5 6 4 -6 -7 10 -9 21 13 12 -13 -14 -15 -16 16 -18 18 -20 -21 -22 -23 24 -25 26 -27 27 28 -30 -31
leaf_value=-0.018969046289103262 0.057815570373688688 -0.0029922491437927036 -0.012189636971623714 0.0052946067107638994 0.0093163943625639133 0.0117278601886337 0.15261468977445725 -0.035552625886345571 0.023061640315087211 0.0090381139697762233 -0.0062802956445295408 -0.024806765136020509 -0.053461126262751839 -0.042180780462225287 -0.00043276768555770275 0.098420701942389402 -0.0012448760427588689 -0.0096157796526680842 -0.00049152320298274477 -0.0013069763681922235 0.058810369684723765 0.17661556672946699 0.012976966574247142 0.0098473614683131632 -0.016679322229700515 0.0086373606790555186 -0.0037512301886141633 0.081307393063894562 0.0056676821384684948 -0.042400901013820387
leaf_weight=434.25559759885073 17.418405055999756 314.66187356412411 602.22589140385389 424.38980519771576 340.93345542997122 2504.6497276946902 3.3160108774900428 233.9350575953722 8.0947944521903974 58.850346058607101 421.68441424518824 443.37640620023012 23.666890516877174 35.281998284161091 4.3463774621486664 4.4753838181495658 713.34285471588373 2123.763140372932 779.97157393395901 429.6402168944478 24.668763920664787 2.3447073996067038 244.96508944034576 1913.1916652098298 137.67020316421986 265.69798491895199 446.96805220842361 8.2952914685010892 601.9554066285491 32.712485432624817
leaf_count=4798 94 2058 5870 2890 2341 13508 27 3199 85 451 4348 4749 270 309 38 38 5788 17297 5940 3101 183 20 1754 11394 984 1819 2864 50 3854 209
internal_value=-8.23068e-05 0.00345898 -0.0131777 -0.00269893 -0.00366303 0.00792539 -0.0100145 -0.0235086 -0.0171727 -0.00480454 -0.0160735 -0.0232675 -0.00878758 -0.00604607 0.0658008 -0.00590016 -0.000623491 -0.00567295 -0.00716492 0.0027694 0.0237392 0.0575498 0.00535167 0.0080339 0.00129373 0.011663 -0.00103764 0.000938079 0.00669587 -0.006387
internal_weight=13600.7 10705.7 2895.06 4500.62 4217.5 6205.07 2216.43 678.63 444.695 3876.57 896.39 451.039 445.351 3452.18 7.66239 1320.04 717.818 3416.89 2903.73 513.159 83.5191 10.4395 3700.42 2227.85 1472.57 283.116 1227.6 1089.93 610.251 479.681
internal_count=100330 71100 29230 34425 32512 36675 21128 8102 4903 30171 9432 4814 4618 27281 65 11696 5826 26972 23237 3735 634 105 23167 13452 9715 1913 7961 6977 3904 3073
is_linear=0
shrinkage=0.05


Tree=25
num_leaves=31
num_cat=0
split_feature=19 4 18 14 5 5 4 5 11 8 8 2 15 11 4 15 11 2 18 19 3 3 5 0 4 0 5 11 13 16
split_gain=229.966 100.044 42.1365 29.5798 27.6341 25.8466 24.8059 28.9499 24.6327 22.4243 23.9948 28.3313 21.6487 28.4455 19.2588 19.1412 21.4686 18.1186 19.0169 19.0141 43.0155 24.7598 17.39 21.3275 33.7721 17.1133 16.2447 18.864 16.084 15.7945
threshold=0.0016344352456750173 1291.5000000000002 0.048071428571429216 115.92842078722036 5.5000000000000009 6.5000000000000009 757.50000000000011 68.500000000000014 113.90076000000001 -0.001017519007563916 0.0007945780012935667 129.79950000000005 149.07313212241289 151.74134000000004 719.50000000000011 149.07313212241289 148.50245000000001 147.04850000000002 0.33464285714285741 0.0068123335597376853 144.96550000000005 145.75550000000001 2.5000000000000004 152.18050000000002 377.50000000000006 149.42050000000003 3.5000000000000004 130.03525000000005 22.170176977783196 0.68793426118652301
decision_type=2 2 2 2 2 2 2 2 2 2 2 2 2 2 2 2 2 2 2 2 2 2 2 2 2 2 2 2 2 2
left_child=2 3 15 5 9 -2 7 -4 -7 -5 11 14 25 28 -11 16 -1 18 -3 20 -20 -21 23 24 -17 -8 -16 -28 -14 -19
right_child=1 17 6 4 -6 8 12 -9 -10 10 -12 -13 13 -15 26 22 -18 29 19 21 -22 -23 -24 -25 -26 -27 27 -29 -30 -31
leaf_value=-0.018732203051465682 -0.01933268489604803 0.0094975991149333777 -0.016160895744492029 0.0070870840361685547 0.013322469973288767 0.15725580095276201 -0.00030620962821480168 0.024620191079533622 -0.026504441710173146 -0.0067167708252358245 0.0034676085679735541 -0.0067854903370603362 0.040148438240945328 -0.0001417979203069723 -0.02314790407795975 -0.0005181426196675437 0.052374022757045807 0.05124662632543675 0.090694002423913095 0.0093942734578434037 -0.028286614782664279 0.075571363809096806 -0.037676900313421698 -0.043671719221545752 0.27692947860922357 0.12466139832350234 0.025762524364633377 0.15205837888452686 -0.027299273237222418 0.0032197004430414736
leaf_weight=432.70586533844471 282.42647567391396 3536.352437376976 1060.1984214410186 652.8298936933279 337.71321606636047 4.0956978425383559 905.91227119415998 45.380855552852154 3.2874854654073715 91.045510835945606 1071.5624680668116 2635.887821495533 9.1791849210858327 221.66508554667234 17.091327384114265 2.7861614003777486 10.882175572216509 17.318214222788811 27.503070771694183 113.72681304812431 10.495336949825285 16.14015206694603 217.93252891302109 4.5905031636357307 1.808944374322891 2.7478632777929297 124.6934851333499 3.0284358114004126 238.45702534168959 1487.7046191990376
leaf_count=4851 2507 19842 11017 4414 2328 27 7356 321 32 756 7631 20259 81 2082 116 38 105 95 129 537 51 75 3079 60 23 25 846 19 2562 9066
internal_value=-8.11904e-05 0.00349551 -0.0119114 -0.00139396 -0.000482065 -0.0169184 -0.00890822 -0.0144869 0.0754335 -0.00149639 -0.00291742 -0.00529992 -0.00443224 -0.0131528 0.0113023 -0.0230318 -0.0169878 0.00839852 0.0102781 0.0267214 0.057831 0.0176189 -0.0348365 0.0325543 0.108704 7.17027e-05 0.0226311 0.0287571 -0.0247992 0.00377234
internal_weight=13587.1 10432.9 3154.25 5223.66 4933.85 289.81 2483.54 1105.58 7.38318 4596.14 3943.31 2871.75 1377.96 469.301 235.859 670.706 443.588 5209.24 3704.22 167.865 37.9984 129.867 227.118 9.18561 4.59511 908.66 144.813 127.722 247.636 1505.02
internal_count=100330 68730 31600 38935 36369 2566 23444 11338 59 34041 29627 21996 12106 4725 1737 8156 4956 29795 20634 792 180 612 3200 121 61 7381 981 865 2643 9161
is_linear=0
shrinkage=0.05


Tree=26
num_leaves=31
num_cat=0
split_feature=18 18 5 10 1 11 12 5 3 10 9 11 5 14 5 2 8 17 5 15 13 8 10 18 11 5 9 5 1 3
split_gain=209.382 63.6005 42.716 45.2276 50.8628 36.9688 47.6039 28.6252 27.9071 30.3816 24.6052 24.0878 24.3147 22.8635 28.9922 22.7319 21.9695 21.1326 19.3593 18.757 20.2131 18.6284 18.909 18.0665 17.6013 17.5451 18.3428 17.141 16.7348 15.8135
threshold=0.071142857142862906 0.15557142857142739 62.500000000000007 147.24660000000003 116.14250000000001 129.15770000000001 128.66022519775547 1.0000000180025095e-35 144.60050000000004 144.93325000000004 -0.0024246632939819985 145.42366000000001 69.500000000000014 115.92842078722036 9.5000000000000018 113.40750000000001 -0.0017842043537034666 47.108041737712192 115.50000000000001 145.61575359195947 20.677749698498058 0.0023270075960637464 146.08085000000003 0.30924999999999975 113.56027 83.500000000000014 -8.9431337904066752e-05 1.5000000000000002 135.07350000000005 143.24950000000004
decision_type=2 2 2 2 2 2 2 2 2 2 2 2 2 2 2 2 2 2 2 2 2 2 2 2 2 2 2 2 2 2
left_child=2 8 3 4 15 6 -6 -5 13 17 -4 -11 19 14 24 -1 29 -10 28 20 -13 22 -21 -3 -2 26 -14 -18 -12 -15
right_child=1 23 10 7 5 -7 -8 -9 9 11 18 12 25 16 -16 -17 27 -19 -20 21 -22 -23 -24 -25 -26 -27 -28 -29 -30 -31
leaf_value=0.017245778751805867 0.011481098860661784 0.0073310013037046103 0.15959716394026069 0.0092568272904548932 0.017806107557651201 -0.0058749570021034885 0.21621528006020099 -0.025485192843065541 0.0049241546018970158 0.017774524578483841 0.074220721075944907 0.063011671877523864 0.018698060728278312 0.013323732833010147 0.13878989868790578 -0.022962573154135326 0.014421196099636286 -0.034675808572565865 0.083245683050914773 0.027416906592753289 -0.025334603301568032 0.0214926482899679 -0.0033733408854584573 0.01979796508386426 -0.019169262131560297 -0.022820469327258744 0.098384193324419389 0.002112576609635109 -0.00029663484571969723 0.048722160092936194
leaf_weight=37.618027091026306 60.140385620296001 3086.4586000815034 3.0211604535579673 63.54171035438776 141.83966691792011 654.2861585766077 3.0889847949147216 886.01359766721725 46.800725437700748 151.00490938872099 8.363362602889536 6.8065680935978881 15.357034251093864 223.30498677492142 3.2086709737777701 536.11286740750074 311.49647489190102 120.26376995444298 9.26093842089176 50.653287164866924 132.65156579017639 80.247835427522659 3198.1198097467422 320.80199329555035 211.7876944616437 9.2801238894462568 13.632343575358391 3075.7040032967925 76.00800396502018 36.741016998887062
leaf_count=359 459 17472 15 677 1230 5952 25 10605 341 1067 55 45 87 1268 21 5936 2090 863 50 366 956 526 25009 1540 1753 52 74 20642 588 207
internal_value=-8.02667e-05 0.00281174 -0.013415 -0.0147704 -0.00896771 -0.000813805 0.022035 -0.0231603 0.000307899 -0.00273106 0.0191539 -0.00177869 -0.00262068 0.00327127 -0.0106275 -0.0203262 0.00431974 -0.0235824 0.0146223 -0.00305801 -0.0210227 -0.00230544 -0.00289327 0.0085048 -0.0123905 0.0370158 0.0561707 0.00324451 0.00708994 0.0183251
internal_weight=13573.6 11154.5 2419.15 2322.5 1372.95 799.215 144.929 949.555 7747.2 3824.82 96.6535 3657.75 3506.75 3922.38 275.137 573.731 3647.25 167.064 93.6323 3468.48 139.458 3329.02 3248.77 3407.26 271.928 38.2695 28.9894 3387.2 84.3714 260.046
internal_count=100330 74838 25492 24784 13502 7207 1255 11282 55826 29386 708 28182 27115 26440 2233 6295 24207 1204 693 26902 1001 25901 25375 19012 2212 213 161 22732 643 1475
is_linear=0
shrinkage=0.05


Tree=27
num_leaves=31
num_cat=0
split_feature=4 19 19 5 4 19 13 4 2 18 19 8 18 16 5 10 14 1 18 1 10 11 11 17 2 16 18 4 14 5
split_gain=196.734 68.0362 41.2117 38.7642 28.8617 20.6372 20.4353 19.8875 21.3681 18.5148 20.3058 18.2715 21.6273 18.9879 17.4911 19.071 22.5634 18.4219 16.6999 16.6767 27.281 16.3652 15.7637 14.9936 14.9375 14.7705 14.2978 13.1086 12.6926 27.1955
threshold=997.50000000000011 0.0014581765136658577 0.0016541676906746104 27.500000000000004 1559.5000000000002 0.0008874040801249085 29.249131395439758 413.50000000000006 158.54300000000003 0.24142857142857518 0.0057085688326823049 -0.0002444217051018604 0.059071428571428955 24.865519057344425 84.500000000000014 147.24660000000003 116.20231697302206 129.21300000000002 0.071142857142862906 135.07350000000005 134.17510000000001 130.59208000000004 118.22154000000002 21.297620599147091 156.54950000000005 36.70520231202962 0.095285714285713016 252.50000000000003 144.95840509198214 2.5000000000000004
decision_type=2 2 2 2 2 2 2 2 2 2 2 2 2 2 2 2 2 2 2 2 2 2 2 2 2 2 2 2 2 2
left_child=1 6 5 7 -4 -2 11 22 9 -9 -11 12 -1 -14 15 16 27 -18 -15 20 21 -5 -3 -21 -25 -7 28 -8 -19 -30
right_child=2 3 4 19 -6 25 14 8 -10 10 -12 -13 13 18 -16 -17 17 26 -20 23 -22 -23 -24 24 -26 -27 -28 -29 29 -31
leaf_value=-0.0085478345118788074 -0.028411387803502421 -0.032406486529399883 0.002940153918575915 0.066128874618146469 0.0092907517060398393 0.0067353065109978143 -0.038398893619561898 -0.0034621577254829311 -0.042714981901051358 -0.032891051462542648 0.071388184025171206 -0.032287735544456811 0.02682065802930882 0.052364744489880793 0.034171653523749033 -0.023969097780030146 0.017312926964894466 -0.016696986486797728 0.23031158914846195 -0.014007816728712401 0.18296603358790919 -0.027915431367345228 -0.0097046224842863345 0.017087992756664252 0.097350426266518644 -0.0067567197347087873 0.11351033573877412 -0.01646088253215762 0.046562123428040503 -0.010592684483844431
leaf_weight=51.758187256753445 83.521299727261066 100.80225169658661 3542.4036085233092 13.795467227697378 3614.7043985873461 297.24500152468681 92.666674971580505 3057.3589269295335 34.467000678181648 6.5299690663814571 16.375108823180199 27.821202531456947 40.653166800737381 3.1693462133407584 16.200739853084087 718.61572822928429 74.799919664859772 260.43446008116007 2.2577159702777863 40.480943970382214 3.6417018249630919 6.9595887660980216 316.7482795342803 121.33159138262272 6.0877265632152548 638.79235901683569 2.3338592872023574 256.77399064600468 27.556068450212479 85.052001290023327
leaf_count=520 1013 1058 23210 77 19716 2422 1211 24307 320 40 93 316 348 27 97 8888 670 2564 20 256 22 43 2812 703 33 5453 20 2954 264 853
internal_value=-7.93288e-05 -0.00750042 0.00480776 -0.0037482 0.00614753 -0.00459715 -0.0159189 -0.00493836 -0.00356471 -0.00312663 0.0416594 0.00346635 0.0136333 0.0385477 -0.0175064 -0.0180578 -0.0127454 -0.00534548 0.126393 0.0181137 0.0567414 0.0345939 -0.0151852 0.0125009 0.0209227 -0.00247224 -0.00986054 -0.0222785 -0.0106324 0.00339354
internal_weight=13561.3 5384.67 8176.67 3724.58 7157.11 1019.56 1660.09 3532.28 3114.73 3080.26 22.9051 125.66 97.8384 46.0802 1534.43 1518.23 799.617 450.176 5.42706 192.297 24.3968 20.7551 417.551 167.9 127.419 936.037 375.376 349.441 373.043 112.608
internal_count=100330 48516 51814 29764 42926 8888 18752 28630 24760 24440 133 1231 915 395 17521 17424 8536 4371 47 1134 142 120 3870 992 736 7875 3701 4165 3681 1117
is_linear=0
shrinkage=0.05


Tree=28
num_leaves=31
num_cat=0
split_feature=4 19 19 5 5 4 9 18 3 11 18 19 14 5 10 10 1 10 4 12 12 9 9 11 17 11 15 19 2 2
